
#include <eml_net.h>
static const float motion_direct_model_layer_0_biases[20] = { -0.020729f, -0.050784f, 0.039152f, 0.070737f, -0.026394f, 0.018877f, -0.007112f, -0.017709f, -0.089064f, 0.037645f, -0.042147f, 0.005938f, 0.137368f, -0.034477f, 0.003599f, -0.097121f, -0.084948f, 0.111371f, 0.069963f, -0.066609f };
static const float motion_direct_model_layer_0_weights[2040] = { 0.179447f, 0.240859f, 0.008064f, 0.005666f, -0.122970f, -0.076284f, -0.155021f, -0.032374f, -0.104909f, -0.056288f, -0.033743f, 0.142675f, 0.075781f, -0.105978f, 0.141582f, 0.214192f, 0.002182f, 0.062610f, 0.100315f, 0.071128f, 0.184397f, -0.016947f, 0.023667f, 0.030748f, -0.110098f, 0.085383f, -0.016905f, -0.094222f, -0.077530f, -0.128804f, 0.061367f, 0.102635f, 0.106008f, 0.010961f, -0.144959f, 0.134549f, -0.015838f, 0.119434f, -0.120851f, -0.002932f, 0.074562f, 0.062249f, -0.052225f, -0.077841f, 0.131532f, 0.012393f, 0.035851f, 0.074363f, -0.029783f, 0.022821f, -0.141626f, 0.007280f, 0.074354f, -0.064583f, -0.117321f, -0.040582f, 0.157825f, -0.149309f, 0.073665f, -0.013052f, 0.000818f, -0.188610f, -0.056988f, 0.087117f, -0.063624f, -0.059898f, 0.103141f, 0.074374f, 0.028889f, -0.137397f, 0.067277f, -0.068674f, 0.032225f, -0.182954f, 0.104748f, -0.028709f, 0.062855f, 0.173044f, 0.128173f, -0.182364f, 0.105839f, -0.032419f, 0.115721f, 0.036895f, -0.114527f, -0.090127f, 0.202351f, 0.016657f, -0.169662f, -0.096981f, -0.001231f, -0.037578f, -0.005035f, -0.095608f, 0.090829f, 0.079768f, -0.051589f, -0.061637f, -0.088070f, -0.013726f, -0.004169f, -0.048954f, 0.040201f, 0.142753f, -0.075037f, 0.086483f, -0.056762f, -0.091327f, -0.025821f, -0.130682f, -0.054680f, -0.106792f, 0.036414f, 0.051564f, 0.107896f, -0.128654f, -0.100107f, -0.064238f, 0.120432f, -0.200197f, 0.157642f, -0.002459f, -0.117159f, 0.070639f, 0.041261f, -0.217068f, -0.013718f, 0.071431f, -0.015197f, 0.013344f, 0.043967f, 0.011091f, 0.137960f, -0.071652f, -0.091382f, -0.053554f, 0.006594f, 0.086346f, 0.127265f, 0.050563f, 0.005066f, -0.000616f, -0.153662f, -0.108682f, 0.046045f, 0.003523f, -0.103819f, -0.139707f, 0.057876f, 0.089461f, -0.055961f, -0.057358f, 0.040678f, -0.067755f, 0.093570f, -0.007177f, -0.067304f, -0.084117f, 0.016238f, 0.163506f, 0.060986f, 0.196131f, -0.081368f, 0.036689f, 0.121893f, 0.044738f, -0.060075f, -0.035690f, -0.130323f, 0.042027f, 0.118425f, -0.086107f, -0.055833f, 0.057155f, -0.133823f, 0.096850f, -0.051094f, -0.120017f, 0.064887f, 0.084520f, -0.053358f, 0.038610f, 0.023830f, -0.122950f, 0.003818f, -0.011580f, 0.094796f, -0.061701f, -0.010211f, -0.081979f, 0.090235f, 0.205507f, -0.074769f, -0.078226f, -0.086758f, 0.101825f, 0.149232f, -0.088406f, 0.125964f, -0.112752f, 0.101679f, 0.067345f, -0.121853f, 0.003833f, 0.106303f, 0.067265f, -0.046319f, -0.137729f, 0.062184f, -0.117435f, -0.020696f, 0.032865f, -0.088035f, -0.017772f, 0.067530f, -0.013581f, 0.039203f, -0.015409f, -0.000104f, -0.169877f, -0.091000f, 0.190444f, -0.053012f, -0.122287f, 0.089320f, -0.125524f, 0.027193f, -0.151970f, 0.094329f, 0.049341f, -0.092289f, 0.101346f, 0.061834f, 0.015044f, 0.130676f, 0.137400f, 0.037267f, -0.121472f, 0.094243f, 0.116485f, -0.082172f, -0.040509f, -0.051760f, -0.016207f, -0.060439f, -0.214001f, -0.206251f, -0.078261f, 0.042505f, -0.048148f, 0.012375f, -0.058778f, -0.088355f, 0.055300f, 0.038611f, 0.139322f, 0.033044f, -0.049821f, -0.038032f, 0.022880f, -0.059879f, -0.030512f, 0.022237f, 0.077157f, 0.170398f, -0.113865f, -0.040453f, 0.133319f, 0.093229f, -0.050445f, -0.110785f, -0.059595f, -0.017646f, 0.122099f, 0.097273f, 0.046869f, 0.086847f, -0.027675f, -0.066820f, -0.148588f, -0.020648f, 0.202783f, 0.009813f, 0.020850f, 0.161312f, -0.123947f, -0.064822f, -0.122453f, -0.083337f, 0.057395f, -0.024280f, 0.082228f, 0.098378f, -0.029290f, 0.204867f, 0.011458f, 0.042664f, -0.060046f, 0.035060f, -0.163187f, 0.022280f, 0.121241f, -0.144933f, 0.031024f, 0.079721f, 0.020001f, -0.076453f, -0.147468f, 0.090207f, 0.149536f, -0.044466f, 0.055162f, -0.191091f, 0.000772f, 0.098183f, 0.123973f, 0.104272f, 0.078642f, 0.133352f, 0.062714f, 0.036399f, -0.016492f, -0.012728f, 0.020042f, -0.040568f, -0.113004f, 0.031078f, 0.055576f, -0.007063f, 0.128207f, -0.090409f, -0.031859f, -0.117989f, 0.062027f, -0.000471f, -0.047084f, -0.001573f, -0.099116f, 0.009426f, 0.021956f, 0.027488f, -0.084457f, -0.060539f, 0.037593f, 0.138177f, -0.064167f, 0.036529f, 0.065830f, 0.012321f, 0.000037f, 0.028406f, -0.041312f, -0.153918f, -0.087154f, 0.016286f, 0.092583f, 0.072088f, -0.075095f, -0.109268f, 0.045026f, 0.120273f, -0.031556f, -0.018068f, -0.002566f, 0.019861f, -0.061687f, 0.158627f, 0.042891f, -0.014775f, -0.071031f, 0.009671f, -0.118012f, 0.056627f, -0.010736f, 0.025076f, 0.032424f, 0.065276f, -0.083692f, -0.017875f, 0.161566f, 0.043544f, -0.079007f, -0.143359f, 0.014802f, -0.051814f, -0.119967f, 0.085234f, 0.126741f, 0.096619f, 0.001901f, 0.077912f, 0.096559f, 0.098071f, -0.064425f, 0.093045f, -0.058095f, 0.078337f, 0.163621f, -0.008698f, 0.165139f, 0.092629f, -0.095482f, -0.124835f, -0.062828f, -0.029787f, -0.030471f, -0.002591f, 0.060251f, -0.153472f, 0.103966f, -0.106661f, -0.027803f, -0.150272f, -0.104580f, -0.020983f, -0.145720f, 0.088903f, -0.008044f, -0.082550f, 0.133260f, 0.012672f, -0.041519f, -0.061579f, 0.130712f, -0.021057f, -0.051805f, 0.050744f, 0.067412f, 0.000622f, -0.048684f, -0.009343f, 0.053697f, -0.108061f, 0.167291f, -0.023601f, -0.017204f, 0.070637f, 0.161054f, -0.083009f, 0.159404f, -0.099529f, 0.076430f, 0.063833f, -0.072533f, 0.278751f, -0.143140f, 0.143214f, -0.081941f, 0.099369f, 0.040645f, -0.120785f, -0.104338f, -0.213061f, 0.010962f, -0.038053f, 0.008794f, 0.094763f, 0.093340f, 0.042213f, 0.109118f, -0.037932f, 0.055156f, -0.120968f, 0.077863f, -0.068719f, -0.186256f, -0.104183f, 0.113973f, 0.072473f, -0.118776f, 0.016239f, 0.044282f, 0.039135f, -0.122456f, 0.034871f, 0.092992f, 0.112889f, 0.123301f, 0.072531f, -0.194606f, 0.109218f, -0.033658f, -0.152625f, -0.040167f, -0.032775f, 0.100087f, -0.119529f, 0.101362f, -0.059836f, -0.130115f, -0.067757f, -0.066611f, -0.142377f, -0.012076f, -0.103719f, 0.161881f, 0.079243f, 0.044033f, 0.003848f, -0.092029f, -0.050147f, -0.065237f, -0.115772f, 0.003720f, 0.107605f, -0.114236f, -0.128846f, -0.078201f, 0.100454f, -0.041381f, -0.045939f, 0.122160f, -0.105709f, 0.137995f, -0.109447f, 0.113592f, 0.200192f, 0.038419f, -0.168562f, -0.003740f, 0.038795f, 0.131712f, 0.010188f, -0.085514f, -0.002647f, -0.130394f, -0.040204f, 0.125497f, 0.043398f, 0.017054f, 0.086062f, 0.135656f, -0.109372f, -0.107844f, 0.135635f, 0.010247f, -0.017897f, -0.030149f, -0.075107f, 0.065869f, 0.160084f, -0.116708f, 0.011011f, 0.052731f, 0.162969f, 0.068219f, -0.137141f, -0.125798f, -0.126471f, 0.037939f, 0.118126f, 0.180361f, -0.129716f, 0.091353f, -0.118569f, 0.034725f, -0.012627f, -0.101150f, 0.011189f, -0.055666f, 0.062803f, 0.072603f, -0.171702f, -0.173341f, -0.066527f, -0.135526f, -0.044491f, -0.064568f, -0.050279f, -0.055876f, -0.060876f, 0.028523f, -0.033194f, -0.062739f, -0.051134f, -0.066206f, 0.037319f, -0.012318f, -0.106978f, -0.099364f, 0.000305f, 0.042830f, 0.011934f, -0.076460f, 0.096886f, -0.113196f, -0.096774f, 0.166186f, 0.089540f, -0.049593f, 0.081834f, 0.155574f, 0.003703f, 0.161086f, 0.092117f, 0.062908f, 0.147620f, 0.047400f, 0.039649f, 0.179933f, 0.087380f, 0.104860f, -0.142435f, 0.062374f, -0.132782f, 0.067456f, 0.142399f, 0.014494f, 0.093558f, -0.034483f, 0.054099f, 0.120865f, 0.023597f, -0.064981f, 0.175294f, 0.145536f, -0.028530f, -0.110218f, -0.080653f, -0.078336f, 0.156694f, -0.013859f, 0.010521f, 0.054711f, 0.015517f, -0.085221f, 0.044212f, 0.000457f, -0.113444f, 0.062380f, -0.094100f, 0.023778f, 0.044234f, -0.088157f, -0.102214f, 0.072691f, 0.243382f, -0.203316f, -0.000849f, -0.036223f, -0.008033f, 0.172478f, -0.100728f, -0.086493f, 0.028065f, 0.100202f, 0.085428f, -0.032651f, 0.092700f, -0.067027f, 0.039569f, 0.066293f, -0.008649f, -0.037624f, 0.043870f, 0.099148f, 0.205721f, -0.026494f, 0.171632f, -0.072284f, -0.058893f, 0.118434f, -0.055219f, 0.039311f, 0.052144f, -0.069049f, -0.148717f, 0.084268f, -0.165907f, 0.055929f, 0.009287f, -0.163550f, 0.082300f, 0.087642f, -0.050036f, 0.101046f, -0.066405f, 0.029736f, 0.149383f, -0.065498f, -0.014396f, 0.191773f, -0.094280f, -0.185694f, -0.059561f, 0.091298f, 0.023255f, -0.041257f, -0.149867f, 0.052427f, 0.035505f, -0.137893f, -0.078046f, -0.019580f, 0.138453f, -0.006507f, 0.176814f, 0.055031f, 0.057995f, -0.166790f, 0.051881f, -0.059339f, -0.045949f, -0.096486f, -0.154176f, 0.081572f, 0.023946f, -0.114953f, -0.062263f, 0.022769f, 0.200318f, 0.077547f, -0.152746f, -0.094427f, 0.111223f, 0.046345f, 0.081362f, -0.074765f, 0.017063f, 0.067874f, 0.067382f, 0.162437f, 0.136963f, -0.154737f, 0.012350f, 0.038987f, -0.137858f, 0.147626f, 0.038657f, 0.045813f, -0.085085f, -0.163365f, 0.109215f, 0.151792f, 0.059470f, 0.085644f, 0.063542f, 0.020274f, -0.007811f, 0.011126f, 0.037613f, -0.108495f, -0.099190f, 0.146869f, 0.056133f, -0.084936f, -0.167675f, 0.080095f, 0.084844f, 0.125580f, -0.139502f, 0.122188f, -0.066231f, 0.043618f, 0.118387f, -0.032387f, -0.067225f, -0.061079f, -0.111628f, -0.107356f, -0.072339f, 0.100458f, 0.033685f, 0.154100f, -0.049160f, -0.177698f, -0.188109f, 0.168088f, 0.109053f, 0.074911f, 0.040075f, -0.163135f, 0.041932f, -0.140847f, -0.026746f, -0.073727f, -0.125395f, 0.040465f, -0.072445f, -0.132928f, 0.099028f, -0.023795f, 0.002906f, 0.012077f, -0.147469f, -0.159374f, -0.113500f, -0.031194f, 0.106923f, 0.079339f, -0.137164f, -0.041615f, 0.091690f, 0.075884f, -0.003913f, 0.025118f, -0.172748f, 0.138255f, -0.121017f, 0.078725f, -0.051907f, -0.009841f, 0.012062f, 0.005265f, 0.063895f, -0.086664f, 0.082940f, -0.157366f, -0.113325f, 0.182566f, -0.081147f, -0.002656f, -0.200493f, 0.161982f, 0.174685f, -0.096425f, -0.124347f, 0.201980f, 0.097385f, 0.100152f, 0.009877f, -0.033644f, -0.021267f, 0.090795f, -0.015805f, -0.162462f, -0.030210f, 0.090571f, 0.076702f, 0.085292f, 0.073855f, 0.033009f, 0.022662f, -0.139547f, 0.145349f, -0.096017f, 0.018588f, -0.087578f, 0.016408f, -0.147631f, -0.002480f, -0.072692f, -0.166600f, -0.164332f, 0.138487f, -0.099729f, 0.102634f, 0.030253f, 0.094611f, 0.085316f, 0.046010f, 0.053461f, -0.098593f, 0.130325f, 0.056151f, 0.128943f, -0.015613f, 0.070058f, -0.053476f, 0.031833f, 0.067615f, -0.063521f, -0.126906f, 0.030621f, -0.153945f, -0.033392f, -0.082355f, -0.168640f, -0.113386f, -0.020106f, -0.064136f, -0.021584f, -0.119399f, 0.090152f, 0.026028f, -0.099351f, 0.089041f, 0.064095f, -0.076042f, -0.098754f, 0.094425f, 0.161389f, -0.043537f, 0.080695f, -0.123732f, 0.075207f, 0.065626f, -0.111813f, 0.086582f, -0.097170f, 0.099199f, 0.170840f, 0.048106f, -0.057267f, 0.079961f, 0.081212f, 0.068655f, -0.011315f, -0.035454f, 0.065937f, 0.089630f, 0.082879f, -0.087407f, 0.062087f, -0.052474f, -0.011628f, -0.179680f, -0.037544f, 0.116211f, 0.034053f, -0.006654f, -0.070156f, 0.002230f, 0.028853f, 0.141771f, -0.075286f, -0.045112f, -0.031688f, -0.118948f, 0.160697f, -0.042155f, 0.213886f, 0.044621f, 0.107832f, 0.003218f, 0.054284f, 0.060912f, -0.155980f, 0.101707f, -0.030611f, 0.035995f, -0.077534f, -0.062394f, 0.100601f, 0.128842f, 0.104997f, 0.099133f, 0.045376f, 0.079826f, -0.016098f, 0.017055f, 0.190619f, -0.165873f, -0.000701f, 0.210320f, -0.091896f, -0.184667f, -0.120460f, 0.017734f, -0.056849f, 0.001317f, 0.047930f, -0.083921f, -0.105170f, 0.117863f, 0.022006f, 0.070622f, -0.137221f, -0.077649f, -0.145150f, 0.010533f, 0.013702f, -0.035608f, 0.077733f, 0.184382f, 0.091973f, 0.062046f, 0.046578f, 0.010642f, -0.003299f, -0.031047f, 0.081668f, -0.051199f, 0.186032f, -0.033646f, 0.107948f, 0.160095f, -0.166169f, 0.044282f, 0.143430f, 0.081214f, 0.033170f, -0.101484f, 0.121424f, 0.041916f, 0.024040f, 0.041277f, 0.047644f, 0.236901f, 0.134721f, 0.100447f, 0.031976f, -0.140591f, 0.155537f, -0.074322f, -0.156335f, 0.005144f, 0.069410f, 0.135807f, 0.187436f, 0.045085f, -0.062018f, -0.127883f, 0.020770f, -0.020423f, -0.083169f, 0.093123f, -0.131241f, 0.151550f, 0.074338f, 0.119274f, -0.083849f, -0.171291f, -0.071372f, -0.039044f, 0.079139f, 0.048174f, -0.041031f, -0.107499f, -0.007087f, 0.018839f, -0.213770f, 0.052263f, -0.022995f, 0.036334f, 0.048488f, 0.196542f, 0.211303f, -0.034161f, -0.013116f, 0.070838f, 0.016756f, -0.167775f, -0.106095f, 0.035160f, 0.062923f, -0.005610f, 0.062892f, 0.062138f, -0.136176f, -0.011349f, -0.024538f, -0.052208f, -0.117303f, 0.108163f, -0.059930f, -0.087023f, -0.116028f, -0.006390f, 0.001670f, 0.066561f, -0.021946f, -0.132089f, -0.079532f, 0.091387f, -0.082874f, 0.066000f, 0.091743f, -0.037751f, -0.071011f, -0.016071f, 0.050774f, -0.081809f, -0.050602f, 0.048723f, -0.007104f, 0.109446f, -0.121599f, -0.157329f, -0.088798f, 0.041053f, -0.135276f, 0.042298f, 0.155809f, 0.000817f, 0.020238f, -0.030548f, 0.072124f, 0.171064f, -0.185448f, 0.063394f, 0.038232f, -0.151355f, -0.027366f, 0.103855f, -0.061768f, -0.052177f, 0.007035f, 0.059352f, 0.151171f, 0.053529f, 0.114217f, -0.070113f, -0.089259f, -0.049401f, 0.016710f, 0.057748f, -0.129705f, 0.024153f, 0.015292f, -0.059530f, 0.004397f, 0.013542f, -0.190668f, -0.018664f, -0.022481f, 0.111172f, 0.073392f, -0.104651f, 0.090017f, -0.071817f, 0.012767f, 0.021490f, 0.116762f, -0.065668f, -0.082721f, -0.040548f, 0.119173f, -0.099312f, -0.137078f, -0.070072f, 0.044443f, -0.035958f, -0.032608f, 0.091315f, 0.087828f, 0.005980f, 0.038006f, 0.015557f, 0.017992f, 0.028860f, -0.003221f, 0.001410f, 0.047320f, -0.096211f, 0.126323f, 0.067880f, 0.125371f, -0.024166f, -0.055690f, -0.000618f, 0.221760f, 0.016234f, -0.019621f, -0.029379f, -0.060341f, 0.058369f, -0.188972f, 0.125252f, 0.007976f, -0.085553f, -0.008499f, 0.001390f, -0.060249f, 0.212614f, 0.107689f, 0.121461f, -0.171397f, -0.104859f, 0.097012f, 0.115447f, 0.136305f, -0.046362f, -0.015775f, 0.082278f, -0.102775f, -0.104994f, 0.058617f, -0.067116f, 0.056647f, 0.069130f, 0.068491f, -0.099928f, -0.038752f, 0.068790f, 0.041293f, 0.020057f, -0.127542f, 0.097283f, 0.165839f, -0.105595f, 0.173431f, -0.110700f, 0.107368f, 0.002839f, 0.036063f, 0.061792f, -0.078526f, -0.086328f, -0.065544f, -0.033355f, -0.020426f, 0.052615f, 0.004442f, -0.070981f, 0.130919f, -0.076383f, -0.137460f, 0.088226f, -0.003158f, 0.009370f, -0.043091f, -0.109852f, -0.097271f, 0.004921f, -0.065234f, 0.016575f, 0.069721f, 0.109516f, -0.088977f, 0.173427f, -0.027960f, -0.163012f, -0.017002f, -0.047664f, -0.015489f, 0.138380f, -0.056427f, 0.088403f, -0.031043f, 0.019265f, -0.013947f, -0.064489f, -0.051476f, 0.014485f, -0.161730f, 0.061718f, -0.074356f, 0.083375f, -0.061010f, 0.091403f, -0.084759f, -0.133099f, 0.001709f, 0.161837f, -0.093519f, -0.000416f, -0.123089f, -0.014466f, -0.019249f, -0.051783f, 0.076962f, 0.049592f, -0.033467f, -0.031851f, 0.053552f, 0.045888f, 0.013551f, -0.065782f, -0.053474f, 0.062309f, 0.021212f, -0.186360f, -0.072717f, -0.024743f, 0.053491f, 0.122349f, 0.085240f, -0.185989f, 0.204601f, 0.043962f, 0.085700f, -0.121809f, 0.147473f, 0.195331f, 0.046463f, 0.104461f, -0.054878f, 0.163431f, -0.001328f, 0.030399f, 0.059172f, 0.024930f, -0.065497f, 0.005498f, 0.014349f, -0.035252f, -0.105005f, 0.019975f, 0.035144f, -0.073073f, 0.214090f, 0.015948f, -0.061018f, 0.051419f, -0.178243f, 0.164353f, 0.154515f, 0.048916f, 0.025878f, -0.003031f, -0.037212f, -0.152003f, 0.106340f, -0.071026f, 0.054790f, 0.118649f, 0.072251f, 0.110605f, 0.215427f, 0.012207f, 0.149434f, -0.046312f, -0.100260f, 0.102804f, -0.062375f, 0.053560f, -0.001221f, -0.122698f, -0.135995f, -0.017063f, 0.101813f, -0.192347f, -0.032744f, 0.069229f, 0.091802f, -0.029135f, 0.097352f, -0.096868f, -0.167984f, -0.110128f, -0.006381f, 0.013112f, -0.029537f, 0.108970f, 0.033616f, -0.036501f, -0.011715f, -0.065783f, -0.026305f, 0.077493f, -0.018190f, 0.019450f, -0.094592f, -0.135644f, 0.063770f, 0.158937f, -0.059342f, 0.016779f, 0.120913f, -0.057791f, -0.077770f, -0.094056f, -0.144763f, -0.109488f, 0.046414f, 0.138687f, 0.012768f, -0.052752f, -0.145986f, 0.025826f, 0.019616f, -0.066173f, 0.126925f, -0.121435f, 0.081366f, -0.029147f, 0.162484f, 0.057244f, 0.074355f, -0.026975f, 0.123650f, -0.009375f, -0.084318f, -0.062789f, 0.005117f, -0.080035f, -0.244074f, -0.131953f, -0.112887f, 0.118475f, 0.031733f, 0.211069f, -0.065963f, -0.022812f, 0.092756f, 0.106899f, -0.166452f, 0.156750f, -0.198120f, 0.205733f, 0.037999f, -0.034085f, 0.183982f, -0.192510f, 0.010119f, -0.013416f, -0.211349f, -0.116360f, -0.129164f, 0.207716f, 0.082795f, 0.152205f, -0.222912f, -0.022544f, 0.010023f, 0.114209f, -0.005753f, 0.103889f, -0.164388f, -0.185536f, 0.193743f, 0.116374f, -0.241306f, 0.154491f, 0.093192f, 0.113412f, -0.123891f, 0.030020f, 0.084517f, -0.275700f, -0.257197f, 0.071721f, -0.038815f, 0.240983f, 0.060758f, 0.019124f, 0.188852f, 0.004718f, -0.176544f, 0.177958f, -0.045707f, -0.053332f, 0.074117f, 0.019309f, -0.003113f, -0.149393f, 0.003773f, -0.072574f, -0.134877f, 0.028118f, 0.164436f, 0.128386f, -0.169135f, 0.043732f, 0.027254f, -0.074814f, -0.002693f, 0.076252f, 0.049978f, -0.017579f, -0.035475f, 0.028535f, 0.100196f, -0.095670f, 0.136557f, 0.088836f, -0.098693f, -0.090730f, -0.125297f, -0.128635f, -0.000482f, -0.073268f, -0.135766f, 0.003961f, 0.024375f, 0.089852f, -0.109492f, 0.043784f, -0.161315f, 0.023479f, -0.084569f, -0.038742f, 0.169006f, -0.068532f, -0.097351f, 0.008588f, 0.210558f, -0.033033f, 0.002397f, -0.007596f, 0.065949f, 0.016307f, -0.092496f, -0.056418f, -0.213169f, -0.138042f, -0.117528f, -0.006354f, 0.060535f, 0.129226f, -0.034777f, -0.019888f, 0.057183f, -0.070586f, -0.150842f, -0.042978f, 0.130070f, 0.011098f, -0.120446f, 0.028890f, 0.223463f, 0.168090f, 0.183350f, -0.178902f, 0.037446f, -0.210312f, -0.114431f, -0.035198f, 0.094194f, 0.154674f, 0.005648f, 0.007536f, -0.050068f, -0.001559f, -0.177048f, 0.054015f, 0.138646f, -0.000046f, 0.030761f, 0.173002f, 0.056819f, 0.166865f, 0.019570f, 0.020834f, -0.094636f, 0.072181f, 0.031564f, 0.092954f, 0.055333f, 0.132991f, 0.090265f, -0.060418f, -0.017427f, 0.109406f, 0.010597f, 0.049758f, 0.036460f, -0.096614f, -0.132454f, -0.078237f, 0.211496f, 0.124577f, -0.007834f, -0.134091f, -0.054366f, -0.061453f, -0.035859f, -0.071824f, 0.105285f, -0.029105f, 0.089380f, -0.141160f, 0.116614f, -0.111387f, -0.090679f, -0.017549f, 0.191484f, 0.103283f, -0.028060f, -0.067950f, -0.021024f, -0.128926f, -0.066794f, -0.063525f, -0.014202f, -0.079736f, -0.054957f, 0.027734f, -0.190608f, 0.078590f, 0.136931f, -0.090584f, 0.001736f, -0.076311f, -0.087097f, -0.137606f, 0.108844f, 0.036551f, 0.053976f, -0.099106f, 0.098590f, -0.020495f, -0.032548f, -0.054689f, 0.071427f, 0.057011f, 0.121780f, 0.104784f, -0.094204f, -0.105792f, -0.025378f, -0.060157f, 0.035589f, 0.141099f, -0.161316f, -0.148073f, 0.117078f, 0.086002f, 0.023699f, -0.052163f, 0.112207f, -0.148444f, -0.021661f, 0.126305f, 0.010724f, 0.122752f, -0.162818f, -0.092867f, -0.019480f, 0.140439f, -0.088028f, -0.029376f, -0.038821f, 0.182955f, -0.003282f, 0.062701f, 0.138678f, -0.037212f, 0.065622f, -0.088327f, 0.080274f, -0.075955f, 0.045543f, 0.088186f, 0.013224f, 0.031252f, 0.062639f, 0.007431f, 0.202429f, 0.121801f, 0.071821f, -0.027662f, 0.063732f, -0.083727f, -0.059356f, -0.029102f, -0.043684f, -0.040336f, 0.057284f, -0.082225f, 0.053318f, 0.080727f, -0.003551f, -0.117050f, 0.062165f, -0.048067f, 0.005715f, -0.012415f, -0.007868f, 0.089657f, 0.061037f, -0.074598f, -0.123913f, 0.073213f, 0.058039f, -0.144929f, -0.021804f, 0.032857f, 0.174014f, -0.086789f, -0.079857f, 0.037206f, 0.104440f, 0.136207f, -0.071760f, 0.020307f, -0.036340f, -0.114368f, 0.135754f, 0.052690f, -0.086293f, 0.066103f, -0.078425f, 0.166136f, -0.118464f, 0.065785f, 0.042564f, -0.084727f, 0.084142f, 0.030147f, -0.072202f, 0.116272f, -0.037748f, 0.013899f, 0.011235f, -0.107879f, 0.019881f, 0.126695f, -0.021139f, 0.116778f, -0.037870f, 0.055525f, -0.111616f, 0.035867f, -0.112946f, 0.004777f, 0.171430f, -0.049607f, -0.072148f, -0.026672f, 0.094987f, -0.086893f, -0.026093f, -0.102359f, -0.032327f, -0.036689f, -0.030942f, -0.035386f, -0.028662f, 0.038589f, -0.182119f, -0.055813f, 0.065439f, -0.049286f, -0.140162f, -0.107132f, 0.128285f, -0.092822f, 0.013598f, 0.142364f, -0.056051f, 0.038390f, 0.127017f, -0.152866f, -0.104819f, -0.013499f, -0.105314f, -0.105587f, 0.134509f, -0.034471f, -0.058845f, -0.116488f, 0.037220f, -0.062352f, -0.086830f, 0.081332f, 0.064654f, 0.033998f, -0.014201f, 0.096196f, 0.173200f, -0.160654f, -0.128278f, 0.053149f, -0.090850f, -0.014441f, -0.080170f, -0.037767f, -0.170896f, -0.094619f, 0.052425f, 0.059649f, 0.094138f, -0.067193f, -0.160767f, 0.117135f, 0.088102f, -0.047388f, 0.150186f, 0.031581f, -0.114734f, -0.052373f, 0.003584f, 0.180430f, 0.015231f, -0.056165f, -0.101050f, 0.140941f, 0.143627f, -0.054159f, 0.121617f, -0.115669f, -0.052284f, 0.083539f, -0.218023f, -0.148406f, -0.136639f, -0.090084f, 0.123921f, 0.083446f, 0.118594f, -0.210061f, 0.163352f, 0.022630f, 0.020255f, -0.070053f, 0.029945f, 0.120199f, 0.196432f, 0.031727f, -0.152345f, -0.008525f, -0.137878f, 0.099483f, -0.060161f, 0.038620f, -0.057616f, 0.089359f, -0.119783f, 0.167579f, 0.101395f, -0.030221f, 0.125241f, 0.058277f, 0.006642f, 0.086956f, 0.040177f, -0.135745f, 0.029019f, 0.077981f, 0.087696f, -0.105887f, 0.052819f, 0.161189f, -0.015515f, 0.045523f, -0.013449f, 0.014364f, 0.023559f, 0.125812f, 0.119774f, 0.023172f, -0.000319f, -0.185634f, 0.101642f, 0.058002f, -0.038087f, 0.122116f, 0.196930f, -0.085803f, -0.026560f, -0.091531f, 0.120598f, 0.158622f, 0.072474f, -0.004215f, 0.062786f, -0.075692f, -0.065889f, 0.036829f, -0.016836f, -0.076340f, -0.137779f, 0.193499f, -0.014067f, 0.134329f, -0.035537f, -0.088047f, 0.058116f, -0.035175f, 0.079993f, 0.026993f, -0.144759f, 0.010567f, -0.078427f, -0.010436f, 0.161861f, -0.108885f, 0.091522f, 0.015776f, 0.009181f, 0.091373f, 0.010588f, -0.012484f, 0.014210f, 0.129661f, 0.014643f, 0.116046f, -0.084389f, 0.071348f, 0.031323f, 0.022394f, 0.036577f, 0.057665f, -0.012255f, -0.038408f, 0.159091f, -0.068382f, 0.062650f, 0.089600f, 0.000047f, 0.075173f, -0.074759f, 0.090682f, -0.119510f, 0.177495f, -0.004654f, 0.114163f, -0.068141f, -0.026074f, 0.089161f, 0.054677f, -0.072101f, 0.199110f, 0.029320f, -0.087412f, -0.087359f, 0.132762f, -0.029712f, -0.037601f, -0.116004f, -0.133124f, 0.163485f, 0.014403f, 0.042015f, 0.150870f, -0.145091f, -0.149260f, -0.029758f, 0.021473f, 0.133931f, 0.059967f, -0.036126f, 0.134342f, 0.094462f, 0.106347f, 0.013480f, -0.029455f, -0.115293f, 0.198715f, 0.037727f, -0.117961f, -0.043373f, -0.079157f, 0.006287f, -0.041509f, -0.009663f, 0.007658f, 0.117711f, -0.099555f, 0.090557f, -0.041856f, 0.040350f, 0.091707f, -0.215417f, 0.098631f, 0.034435f, -0.098675f, -0.026875f, 0.001195f, -0.033411f, -0.149584f, -0.120962f, 0.112149f, 0.013631f, 0.153730f, -0.028608f, -0.075298f, 0.007434f, 0.104126f, 0.021247f, -0.084266f, -0.033810f, 0.131797f, 0.078682f, 0.130723f, 0.193218f, 0.005908f, -0.022108f, 0.013046f, -0.100502f, 0.040077f, 0.009871f, -0.075752f, 0.065234f, 0.044502f, -0.110074f, -0.022624f, -0.036516f, -0.070287f, 0.032183f, 0.006188f, -0.072409f, -0.079734f, 0.004357f, -0.039294f, 0.177303f, -0.001033f, -0.112495f, -0.042541f, 0.043341f, 0.061248f, 0.097141f, 0.106922f, -0.118231f, 0.039596f, -0.014361f, -0.038102f, -0.047821f, 0.102786f, 0.165037f, -0.097142f, 0.040251f, -0.007221f, -0.076804f, -0.025250f, 0.069129f, -0.150333f, -0.063126f, 0.056580f, -0.008678f, -0.060275f, -0.009372f, 0.158857f, 0.111555f, 0.091670f, -0.130255f, -0.094890f, 0.076687f, 0.141694f, 0.155749f, 0.040781f, 0.079968f, 0.058678f, -0.127730f, 0.072247f, 0.046272f, -0.002124f, -0.004007f, 0.105485f, 0.206715f, 0.140170f, 0.117549f, 0.141846f, 0.184777f, -0.007929f, -0.019453f, 0.006428f, 0.052925f, -0.107772f, -0.015825f, -0.061888f, -0.006904f, -0.070436f, 0.059602f, -0.004573f, 0.050288f, -0.149987f, 0.116043f, 0.083025f, 0.022711f, 0.083824f, -0.089469f, -0.036058f, 0.067390f, 0.134816f, 0.066332f, -0.140811f, 0.081923f };
static const float motion_direct_model_layer_1_biases[10] = { -0.121584f, -0.035942f, -0.102210f, 0.095435f, -0.040531f, 0.080021f, -0.125400f, -0.009966f, -0.111396f, 0.295073f };
static const float motion_direct_model_layer_1_weights[200] = { 0.356208f, -0.180408f, -0.270267f, 0.073624f, -0.054386f, -0.132236f, -0.142540f, 0.274227f, 0.020328f, 0.014523f, 0.272808f, -0.037935f, 0.322774f, -0.249384f, 0.468407f, 0.030390f, -0.052783f, -0.057491f, -0.116635f, 0.043135f, 0.259153f, 0.384532f, -0.164713f, -0.071639f, -0.134718f, -0.055444f, -0.042930f, -0.213449f, 0.022173f, 0.083244f, -0.160816f, -0.183826f, 0.158370f, 0.436977f, -0.297834f, -0.115073f, -0.131138f, 0.098862f, 0.071449f, 0.378478f, -0.088779f, 0.017960f, 0.347680f, -0.203962f, 0.272752f, 0.079531f, -0.028046f, 0.153621f, 0.219998f, -0.126511f, 0.178843f, 0.494963f, 0.033129f, 0.135247f, 0.046397f, -0.043037f, -0.089564f, -0.158891f, 0.227926f, 0.462565f, -0.312165f, 0.043360f, 0.171979f, 0.126943f, 0.057361f, -0.070941f, -0.063109f, 0.362815f, 0.260983f, 0.309932f, -0.335133f, -0.012219f, 0.247109f, 0.388409f, 0.332591f, 0.336790f, -0.100059f, 0.208243f, 0.119751f, 0.165974f, -0.005606f, 0.089240f, -0.158978f, -0.266940f, 0.027537f, -0.150104f, -0.082510f, 0.071339f, 0.342158f, -0.014389f, -0.123366f, 0.179303f, -0.166727f, -0.162568f, 0.183686f, 0.269231f, -0.036344f, -0.225559f, 0.156600f, 0.115392f, 0.193292f, -0.176733f, -0.101957f, 0.129956f, -0.132307f, -0.168574f, -0.094089f, 0.316007f, 0.069929f, -0.238619f, 0.315241f, 0.050778f, -0.162997f, 0.321532f, 0.246565f, -0.036867f, 0.121156f, 0.301046f, -0.191460f, 0.005414f, 0.093196f, 0.452240f, -0.163659f, 0.296926f, -0.355405f, -0.137828f, 0.164148f, -0.184689f, 0.057046f, 0.253177f, -0.256854f, 0.078059f, -0.173607f, -0.124207f, 0.283909f, 0.052622f, -0.014772f, 0.157728f, 0.252729f, 0.091905f, -0.059190f, -0.217568f, 0.325809f, 0.046620f, 0.366117f, -0.109732f, -0.061462f, -0.270199f, -0.330557f, 0.195252f, 0.307418f, -0.134323f, 0.033196f, -0.174064f, 0.018323f, -0.137131f, -0.080711f, 0.019252f, -0.098124f, -0.171487f, 0.257299f, -0.155062f, 0.307595f, -0.123221f, 0.145602f, -0.186748f, -0.001785f, 0.169630f, 0.145690f, -0.174616f, 0.240691f, -0.055365f, -0.248985f, -0.284964f, -0.072280f, 0.126894f, 0.035288f, -0.156084f, -0.274045f, 0.323965f, 0.014316f, -0.131977f, -0.218838f, -0.160635f, 0.094463f, -0.136341f, -0.063286f, -0.317813f, -0.262457f, 0.271246f, -0.196630f, 0.304026f, 0.207013f, 0.398162f, 0.387767f, -0.022216f, -0.105023f, 0.085330f, 0.380641f, -0.082855f };
static const float motion_direct_model_layer_2_biases[6] = { -0.149581f, -0.154577f, 0.214570f, -0.017315f, -0.215382f, 0.240322f };
static const float motion_direct_model_layer_2_weights[60] = { -0.183695f, 0.173824f, -0.304000f, -0.282895f, 0.428648f, -0.006694f, -0.413566f, 0.134607f, -0.420496f, -0.091440f, -0.447292f, -0.316369f, -0.086283f, -0.256639f, -0.362336f, 0.220235f, 0.214584f, -0.390461f, 0.388119f, 0.190314f, -0.714413f, -0.484321f, -0.292065f, 0.585721f, 0.462937f, -0.733312f, 0.313336f, 0.559765f, 0.577169f, -0.338203f, -0.668976f, -0.266216f, 0.024417f, -0.183830f, -0.716492f, 0.294205f, 0.264063f, -0.162300f, -0.177431f, -0.021965f, -0.337225f, -0.702752f, 0.482867f, -0.187874f, 0.290934f, -0.348856f, 0.307003f, 0.137346f, 0.456316f, 0.179939f, -0.308816f, 0.504254f, -0.137735f, -0.595666f, -0.091976f, 0.501396f, 0.398349f, 0.153071f, -0.491998f, 0.372535f };
static float motion_direct_model_buf1[102];
static float motion_direct_model_buf2[102];
static const EmlNetLayer motion_direct_model_layers[3] = { 
{ 20, 102, motion_direct_model_layer_0_weights, motion_direct_model_layer_0_biases, EmlNetActivationRelu }, 
{ 10, 20, motion_direct_model_layer_1_weights, motion_direct_model_layer_1_biases, EmlNetActivationRelu }, 
{ 6, 10, motion_direct_model_layer_2_weights, motion_direct_model_layer_2_biases, EmlNetActivationSoftmax } };
static EmlNet motion_direct_model = { 3, motion_direct_model_layers, motion_direct_model_buf1, motion_direct_model_buf2, 102 };

    int32_t
    motion_direct_model_predict(const float *features, int32_t n_features)
    {
        return eml_net_predict(&motion_direct_model, features, n_features);
    }
    

    int32_t
    motion_direct_model_regress(const float *features, int32_t n_features, float *out, int32_t out_length)
    {
        return eml_net_regress(&motion_direct_model, features, n_features, out, out_length);
    }
    

    float
    motion_direct_model_regress1(const float *features, int32_t n_features)
    {
        return eml_net_regress1(&motion_direct_model, features, n_features);
    }
    