
#include <eml_net.h>
static const float motion_direct_model_layer_0_biases[20] = { 0.046873f, -0.026875f, 0.018082f, -0.012499f, -0.048837f, -0.097373f, -0.031623f, -0.072364f, 0.027972f, 0.048745f, -0.003729f, 0.089536f, 0.035640f, -0.088612f, 0.023133f, 0.021542f, -0.028509f, 0.016255f, 0.100599f, -0.016752f };
static const float motion_direct_model_layer_0_weights[2040] = { -0.130588f, 0.056486f, -0.032735f, 0.266326f, 0.094426f, 0.197192f, 0.152103f, 0.140250f, 0.106966f, 0.130442f, -0.035873f, -0.101786f, 0.026592f, -0.044567f, -0.241451f, 0.016520f, 0.114171f, -0.101578f, -0.240521f, 0.002383f, 0.060100f, -0.025740f, 0.112652f, 0.202880f, -0.051903f, -0.009199f, 0.175176f, 0.058321f, -0.156173f, 0.022746f, -0.024023f, -0.291288f, 0.007350f, 0.178597f, 0.066801f, -0.117079f, -0.021957f, -0.011062f, -0.276591f, -0.086206f, -0.113996f, -0.095701f, 0.053785f, 0.049080f, -0.106824f, -0.050035f, -0.056535f, -0.036311f, 0.184165f, -0.151480f, 0.042932f, 0.037511f, -0.081592f, -0.010513f, 0.092537f, 0.095420f, 0.097463f, -0.065562f, 0.145676f, 0.119606f, 0.147248f, 0.073190f, -0.015489f, -0.056216f, -0.023694f, -0.110005f, -0.051640f, -0.103154f, 0.028689f, 0.134416f, -0.113002f, -0.113639f, 0.050540f, -0.138271f, -0.081448f, 0.066487f, -0.080171f, -0.215506f, 0.074197f, -0.004776f, 0.061061f, 0.010817f, 0.004903f, -0.053555f, -0.101399f, 0.086695f, -0.013240f, -0.139038f, -0.014038f, -0.122968f, 0.102544f, 0.126352f, -0.095150f, -0.097867f, -0.141902f, -0.092862f, 0.012795f, -0.124301f, 0.078451f, -0.114100f, -0.135423f, 0.045799f, -0.008610f, -0.132335f, -0.124430f, -0.053743f, -0.129276f, 0.053174f, -0.169430f, 0.183746f, 0.180029f, -0.110428f, -0.064959f, -0.148328f, 0.147161f, -0.030765f, 0.118335f, 0.060905f, 0.194671f, 0.030769f, 0.045027f, -0.081320f, -0.162798f, 0.129296f, -0.150772f, -0.106420f, 0.097245f, 0.038280f, -0.144804f, 0.052941f, 0.080911f, 0.097749f, 0.071619f, -0.112878f, 0.142732f, -0.029221f, 0.102741f, -0.021171f, 0.078560f, -0.124456f, 0.007694f, 0.062169f, -0.099273f, 0.002753f, -0.006525f, 0.009574f, -0.056710f, 0.153898f, 0.105992f, 0.076990f, 0.131941f, 0.012663f, -0.128355f, -0.005462f, 0.058115f, -0.014522f, 0.058550f, -0.070863f, 0.103922f, -0.116651f, -0.122558f, -0.179110f, -0.072284f, 0.103576f, -0.071834f, -0.112262f, -0.048327f, 0.098504f, 0.031485f, -0.100252f, -0.015539f, -0.094006f, -0.005710f, -0.093120f, -0.042793f, -0.057751f, -0.015013f, 0.054677f, -0.047840f, -0.040924f, 0.140440f, 0.002594f, -0.038039f, -0.083583f, 0.077864f, -0.082036f, -0.017720f, 0.024648f, 0.057672f, -0.140172f, 0.086025f, -0.162513f, -0.039586f, -0.106528f, -0.050058f, -0.026880f, 0.040292f, -0.075196f, -0.147113f, 0.048743f, -0.033698f, -0.116234f, -0.134675f, -0.015723f, -0.033562f, 0.034491f, 0.122956f, 0.021678f, 0.108468f, -0.061318f, -0.061620f, -0.001756f, -0.125655f, 0.037286f, 0.055420f, -0.023727f, 0.114588f, -0.002650f, -0.203724f, -0.141444f, 0.082122f, -0.016056f, -0.075814f, 0.083033f, -0.032658f, 0.063550f, 0.124496f, 0.001596f, -0.019489f, -0.003221f, 0.082414f, -0.054353f, -0.085955f, 0.094497f, 0.073763f, 0.057435f, -0.086115f, -0.036413f, -0.020824f, -0.000507f, 0.011566f, -0.147629f, 0.074855f, -0.059967f, 0.027096f, 0.125988f, 0.073678f, 0.123020f, -0.006708f, -0.009293f, -0.072824f, 0.038063f, -0.204480f, 0.107408f, 0.142197f, -0.145397f, 0.125054f, 0.128286f, 0.020207f, 0.029330f, -0.141832f, 0.067090f, 0.017569f, 0.081616f, -0.028490f, 0.131911f, 0.120659f, -0.070780f, -0.192604f, -0.077939f, -0.028430f, 0.098590f, -0.049677f, -0.115419f, -0.109132f, -0.082026f, -0.011559f, -0.002246f, 0.046080f, -0.059193f, -0.183179f, -0.151488f, 0.043791f, -0.056796f, 0.041475f, 0.158689f, -0.058999f, 0.007912f, -0.060164f, -0.089423f, -0.109914f, -0.057085f, 0.032077f, -0.079445f, -0.033546f, -0.069189f, -0.035639f, -0.072685f, 0.094763f, -0.096588f, -0.033990f, -0.150999f, -0.168694f, 0.129075f, -0.126814f, -0.026187f, -0.011525f, 0.020945f, -0.151446f, -0.064375f, 0.032136f, 0.145041f, 0.088747f, -0.050395f, -0.083096f, -0.104030f, -0.045635f, 0.096566f, -0.010085f, -0.048714f, 0.000438f, -0.140427f, 0.080576f, 0.054745f, -0.124458f, -0.118120f, -0.003874f, -0.018165f, -0.099034f, 0.117575f, -0.122584f, 0.100221f, -0.052133f, -0.007045f, 0.177176f, 0.136429f, -0.117425f, 0.122801f, 0.075506f, -0.016884f, 0.030709f, 0.041818f, -0.005259f, 0.167338f, -0.047057f, -0.100866f, 0.207444f, 0.007831f, 0.010205f, 0.132210f, -0.040224f, 0.057635f, 0.240691f, 0.104831f, -0.151192f, -0.015008f, 0.002534f, -0.007608f, 0.091760f, -0.075373f, -0.003545f, 0.012345f, -0.141020f, 0.049089f, 0.055174f, 0.110373f, 0.176221f, -0.067506f, -0.155036f, 0.037505f, -0.061998f, -0.024986f, 0.008877f, -0.032531f, -0.124783f, -0.039153f, 0.134310f, 0.014396f, 0.015764f, 0.034201f, 0.111754f, -0.149299f, -0.112721f, -0.061149f, -0.023070f, 0.103017f, -0.022472f, 0.134389f, -0.083105f, -0.160384f, 0.061158f, -0.047816f, -0.076298f, 0.130106f, 0.045576f, -0.080394f, -0.110449f, 0.086338f, 0.056535f, -0.133986f, -0.103716f, -0.178028f, 0.087960f, -0.123526f, 0.085287f, 0.003742f, 0.048575f, -0.017131f, 0.041073f, 0.160595f, -0.074368f, -0.063136f, -0.028358f, -0.161415f, -0.043467f, -0.035537f, 0.122852f, 0.138834f, -0.062938f, -0.042017f, 0.089632f, 0.031529f, -0.063214f, 0.071740f, -0.072732f, -0.135226f, 0.167510f, -0.104858f, 0.004182f, 0.156960f, 0.120687f, 0.127482f, -0.057017f, -0.057883f, -0.033749f, 0.072279f, -0.015836f, -0.137291f, 0.156521f, 0.006406f, -0.018189f, 0.037457f, 0.098671f, 0.052230f, 0.061567f, 0.024186f, 0.051222f, 0.115401f, -0.040993f, 0.077347f, 0.050919f, -0.048559f, -0.003264f, -0.085053f, 0.057911f, 0.096692f, 0.037467f, 0.094234f, -0.088107f, 0.015775f, -0.127482f, 0.021719f, -0.053697f, 0.179320f, -0.000435f, -0.040623f, 0.055843f, 0.046734f, -0.102453f, -0.035170f, -0.015355f, -0.186908f, 0.033831f, 0.160940f, -0.102958f, 0.127834f, 0.084607f, 0.043192f, 0.083238f, -0.084203f, -0.083212f, 0.031633f, 0.049370f, -0.066833f, -0.059209f, 0.123846f, 0.151928f, 0.143619f, -0.125623f, 0.003330f, -0.018921f, 0.069273f, -0.039112f, 0.148889f, -0.122520f, 0.126117f, 0.124449f, -0.068861f, 0.055409f, -0.076781f, 0.155173f, -0.116577f, -0.047026f, -0.095506f, -0.059559f, 0.020990f, 0.076035f, 0.097582f, 0.044212f, -0.085636f, -0.038715f, -0.106746f, 0.114708f, 0.065938f, 0.148864f, 0.024818f, 0.069071f, -0.098072f, 0.108103f, -0.078811f, 0.111441f, -0.077283f, 0.031927f, 0.104063f, -0.106642f, -0.094451f, -0.018979f, 0.131374f, 0.101928f, -0.027528f, 0.054207f, -0.003847f, 0.088684f, 0.142822f, -0.011859f, 0.036933f, -0.017285f, -0.116088f, 0.164655f, -0.005758f, -0.049493f, -0.113057f, 0.054998f, -0.067364f, 0.030900f, 0.114438f, -0.052174f, -0.104447f, -0.083747f, -0.040538f, -0.062883f, 0.011264f, 0.080923f, -0.003497f, -0.099515f, 0.100655f, 0.009789f, 0.090819f, 0.137150f, -0.090533f, 0.002470f, 0.032098f, 0.023029f, -0.126150f, 0.010382f, 0.024667f, 0.094695f, 0.147159f, 0.148749f, -0.209830f, 0.001488f, 0.050994f, 0.183473f, -0.047911f, -0.045369f, 0.058930f, -0.026999f, -0.066002f, -0.059332f, 0.063760f, 0.169598f, 0.008430f, -0.041397f, -0.045915f, 0.067347f, 0.183820f, 0.075955f, -0.001753f, -0.155188f, -0.001023f, -0.199033f, -0.130006f, -0.001369f, 0.129784f, -0.065537f, -0.018743f, 0.031207f, 0.008146f, -0.079405f, -0.048375f, 0.107893f, 0.056402f, -0.067430f, 0.139020f, 0.080487f, 0.031050f, -0.023968f, 0.118442f, -0.031219f, 0.044765f, 0.065875f, -0.114174f, -0.043757f, 0.145914f, 0.089431f, 0.066179f, -0.052811f, -0.167365f, 0.044616f, -0.162048f, 0.155010f, -0.058626f, 0.051453f, 0.114258f, -0.106214f, -0.028643f, 0.135575f, 0.055447f, -0.004007f, -0.143578f, 0.016972f, 0.061923f, 0.103028f, 0.074193f, 0.068429f, -0.043031f, 0.002969f, -0.120346f, 0.016942f, -0.072574f, -0.058201f, -0.061264f, 0.049694f, 0.146128f, 0.021927f, 0.046570f, 0.129829f, 0.063356f, -0.018477f, -0.060688f, 0.091491f, 0.119039f, -0.147788f, 0.080646f, 0.055475f, -0.164753f, -0.078678f, 0.127979f, -0.074808f, -0.092499f, -0.105378f, 0.084291f, -0.106647f, -0.063857f, -0.043798f, -0.079677f, 0.022530f, 0.019215f, -0.128234f, 0.019985f, -0.181984f, -0.055738f, -0.167740f, 0.124910f, -0.053282f, -0.003765f, 0.084466f, 0.151440f, -0.152953f, 0.001395f, -0.086575f, -0.095991f, 0.044741f, 0.252009f, -0.007233f, 0.197744f, 0.121835f, 0.142249f, -0.119950f, 0.010196f, -0.096254f, 0.136525f, -0.052729f, 0.101352f, -0.137647f, -0.138423f, 0.006398f, -0.063565f, -0.233605f, -0.043256f, -0.101829f, -0.028106f, -0.044030f, -0.053139f, 0.124847f, 0.120241f, 0.090385f, 0.053273f, -0.138560f, -0.151125f, -0.064811f, -0.242450f, 0.152075f, 0.013959f, -0.049700f, 0.046659f, 0.051372f, 0.123051f, -0.196097f, 0.007204f, 0.236996f, -0.031000f, 0.121925f, -0.013607f, 0.182619f, -0.016815f, 0.130562f, -0.187569f, 0.171388f, 0.018297f, 0.121097f, -0.128687f, -0.158100f, 0.113546f, 0.021898f, 0.022837f, 0.064275f, 0.045980f, -0.125382f, 0.015853f, -0.137734f, -0.029845f, 0.019262f, -0.064524f, -0.118703f, -0.130455f, -0.134627f, -0.088884f, -0.129381f, 0.059995f, -0.088225f, 0.129743f, 0.079469f, -0.100179f, -0.056725f, 0.008214f, -0.140458f, 0.128971f, 0.152718f, -0.122475f, 0.018643f, 0.057665f, 0.030795f, -0.054681f, -0.084190f, 0.014386f, 0.073600f, -0.094793f, -0.136784f, 0.232317f, -0.110015f, 0.108800f, -0.189954f, -0.192648f, -0.101334f, -0.037007f, -0.114006f, 0.159512f, 0.087555f, -0.051658f, -0.118746f, 0.086993f, 0.046665f, -0.182436f, -0.108701f, -0.262483f, -0.218693f, -0.210835f, -0.115103f, 0.111528f, -0.075237f, 0.210587f, 0.095186f, 0.037554f, -0.016945f, 0.018420f, 0.050090f, 0.119229f, 0.234010f, 0.033152f, -0.090796f, 0.068785f, -0.023960f, 0.103341f, -0.010673f, -0.078929f, -0.140091f, -0.166961f, -0.015477f, -0.038470f, -0.015861f, 0.076204f, 0.017190f, 0.085107f, 0.008597f, 0.093155f, -0.130488f, -0.052552f, 0.163239f, -0.015928f, -0.069945f, -0.167409f, -0.051536f, -0.078683f, -0.067613f, 0.130851f, 0.136907f, 0.038523f, 0.129788f, -0.015461f, 0.047046f, -0.097685f, 0.175966f, -0.105095f, 0.106960f, 0.024573f, -0.168947f, -0.167602f, 0.093165f, 0.035643f, -0.120349f, -0.031371f, 0.017123f, 0.013418f, -0.147679f, -0.089305f, 0.057584f, -0.040398f, -0.026672f, -0.139908f, -0.065735f, 0.033692f, 0.185304f, -0.026698f, -0.045004f, -0.063950f, 0.074689f, -0.096494f, -0.155499f, -0.123462f, -0.071510f, -0.156183f, -0.006552f, -0.107960f, -0.083325f, 0.040007f, 0.079921f, 0.182146f, 0.032123f, -0.141658f, -0.101617f, 0.071120f, 0.079279f, 0.149436f, -0.050083f, 0.010373f, -0.040717f, -0.093875f, -0.167884f, -0.017362f, 0.012574f, -0.050822f, -0.045211f, 0.016400f, -0.061783f, 0.099769f, -0.027027f, -0.069528f, -0.143167f, 0.109016f, 0.053780f, -0.129345f, -0.029872f, 0.121813f, -0.096982f, -0.038616f, 0.079904f, 0.039403f, 0.111655f, -0.067182f, -0.078897f, 0.027542f, -0.068775f, -0.069401f, -0.013126f, -0.110477f, -0.030836f, 0.133321f, 0.112113f, -0.068814f, -0.073651f, 0.092747f, -0.087071f, 0.045508f, 0.046339f, 0.103397f, 0.076718f, 0.014374f, -0.045650f, -0.154236f, 0.103949f, -0.104864f, -0.141669f, -0.050553f, 0.004899f, 0.059211f, 0.161391f, -0.086608f, 0.048337f, -0.042292f, 0.116359f, -0.024970f, -0.071023f, 0.061219f, -0.121197f, -0.100611f, 0.081495f, 0.095113f, 0.139727f, 0.060313f, -0.146750f, -0.094276f, -0.051931f, 0.001829f, -0.060240f, -0.100642f, 0.020521f, -0.019804f, 0.088820f, -0.069817f, 0.114910f, -0.064526f, 0.067752f, 0.033369f, -0.059006f, 0.077910f, -0.057938f, 0.033790f, -0.072571f, -0.037214f, -0.090149f, -0.118447f, -0.043485f, 0.022716f, -0.121030f, -0.028787f, 0.012557f, -0.106790f, -0.051136f, 0.061589f, -0.088918f, 0.039360f, -0.048417f, -0.030105f, 0.227007f, 0.107483f, -0.111228f, 0.151548f, -0.045390f, -0.085861f, 0.063544f, -0.129837f, -0.085688f, -0.105477f, -0.052520f, -0.014442f, -0.063495f, 0.069329f, -0.130610f, -0.002871f, 0.088659f, 0.109418f, -0.098973f, 0.119914f, 0.096144f, 0.043113f, 0.012556f, 0.031568f, 0.201771f, -0.132847f, -0.164818f, -0.181678f, -0.041171f, -0.134761f, 0.058226f, -0.173846f, -0.039063f, -0.033163f, 0.094544f, -0.082425f, 0.059296f, 0.080691f, 0.131180f, -0.132216f, -0.056472f, 0.049686f, -0.105292f, -0.069986f, 0.027666f, -0.136463f, -0.045154f, -0.020600f, 0.051852f, 0.091708f, -0.133161f, -0.013764f, -0.048429f, -0.057550f, 0.089468f, 0.162647f, -0.015421f, -0.124333f, 0.169006f, 0.083379f, 0.028145f, 0.085171f, -0.018780f, -0.042278f, 0.170723f, 0.045156f, -0.140918f, 0.018476f, -0.008432f, -0.002184f, 0.027402f, 0.080492f, 0.053114f, 0.043715f, 0.054055f, 0.069042f, 0.147329f, -0.115406f, -0.004874f, -0.124291f, -0.016885f, -0.102859f, -0.087905f, 0.058489f, -0.054413f, -0.143991f, -0.023436f, -0.171141f, 0.054008f, 0.046841f, 0.087336f, 0.114580f, -0.039199f, 0.046264f, 0.022282f, 0.052288f, 0.087990f, 0.149698f, -0.014570f, -0.010890f, 0.054247f, -0.098118f, -0.127195f, -0.104408f, 0.059090f, -0.137104f, -0.008157f, -0.176787f, -0.051072f, 0.087133f, -0.098731f, 0.051312f, -0.029702f, -0.022727f, 0.135742f, 0.103726f, 0.126006f, 0.179009f, -0.194151f, -0.120858f, -0.070209f, 0.088654f, 0.041639f, 0.100625f, 0.086668f, -0.126494f, -0.036831f, -0.180892f, -0.061064f, 0.096431f, 0.086927f, 0.100957f, 0.180048f, 0.203347f, 0.040188f, 0.146109f, -0.003039f, 0.096319f, -0.027561f, 0.015083f, -0.230908f, -0.074349f, -0.105540f, -0.109863f, -0.158596f, 0.010986f, -0.171326f, -0.113530f, 0.012493f, 0.084268f, -0.040885f, 0.119440f, -0.086092f, 0.060436f, -0.027796f, 0.078694f, 0.065419f, 0.120921f, 0.025814f, -0.009000f, -0.203612f, -0.141619f, 0.049896f, -0.121561f, -0.008730f, -0.076352f, -0.037223f, -0.059293f, -0.064580f, 0.244558f, -0.048552f, 0.056907f, 0.007418f, 0.230961f, 0.047697f, -0.081556f, 0.040007f, 0.027697f, 0.045847f, -0.039185f, -0.143007f, -0.024276f, 0.118915f, -0.025004f, 0.124962f, -0.051153f, 0.049621f, 0.060355f, 0.067047f, -0.008098f, -0.112270f, 0.070588f, 0.025490f, 0.049959f, -0.134401f, 0.092206f, 0.155330f, 0.046341f, -0.084722f, 0.049997f, -0.151322f, -0.138501f, 0.011304f, -0.063989f, 0.148396f, -0.142736f, 0.016729f, -0.032503f, 0.088805f, -0.071285f, 0.035457f, -0.098034f, 0.084858f, -0.103336f, 0.039490f, -0.186565f, -0.118254f, 0.043335f, 0.132243f, -0.015260f, 0.056844f, 0.087840f, -0.028107f, 0.087336f, 0.127506f, -0.014932f, 0.103401f, -0.028757f, -0.134523f, 0.188023f, -0.098464f, 0.069923f, 0.121256f, 0.129328f, -0.017840f, -0.184621f, -0.004976f, -0.202085f, -0.067413f, -0.001873f, -0.017397f, 0.043271f, 0.065186f, 0.031300f, 0.031450f, 0.065346f, -0.166712f, 0.036934f, 0.060825f, -0.081806f, -0.117444f, 0.131399f, 0.150092f, -0.046471f, -0.139616f, 0.084332f, -0.010687f, -0.066195f, 0.102197f, -0.173500f, 0.183471f, -0.009721f, -0.099257f, 0.056085f, -0.099645f, 0.046331f, -0.026127f, -0.038831f, 0.021298f, -0.059433f, -0.055050f, -0.094681f, -0.059742f, 0.165931f, -0.222871f, 0.007336f, 0.044710f, -0.036569f, 0.149095f, 0.033103f, 0.079376f, 0.053128f, 0.099221f, 0.098724f, 0.007458f, 0.008883f, 0.008803f, -0.146229f, -0.090918f, -0.089655f, 0.021880f, -0.047002f, -0.002409f, -0.015244f, -0.057277f, -0.030124f, 0.043491f, -0.098991f, -0.023470f, 0.067820f, 0.212227f, 0.086485f, 0.003792f, 0.097080f, 0.175078f, -0.077871f, 0.016494f, -0.108244f, -0.014194f, 0.120693f, -0.138325f, 0.161292f, 0.002068f, -0.134624f, -0.032630f, 0.083032f, -0.008500f, 0.005362f, -0.054191f, 0.016417f, 0.061357f, 0.002117f, -0.099462f, -0.006406f, -0.093070f, -0.052904f, 0.024666f, -0.015160f, 0.029061f, 0.209882f, -0.038869f, -0.028742f, 0.212625f, -0.014618f, 0.057735f, -0.159592f, 0.004397f, -0.135748f, -0.001462f, 0.014195f, -0.153039f, -0.030905f, -0.045932f, 0.080659f, 0.043324f, -0.105299f, 0.121808f, 0.090362f, -0.102049f, 0.020247f, -0.004470f, -0.016507f, -0.092019f, -0.093130f, 0.107025f, -0.056189f, 0.075599f, -0.108602f, 0.115613f, -0.058558f, -0.274855f, -0.017858f, 0.001399f, -0.023244f, -0.165844f, 0.052321f, 0.076913f, 0.042246f, -0.075734f, 0.008086f, -0.108205f, 0.026452f, 0.029249f, 0.144380f, -0.124541f, 0.077338f, -0.002249f, -0.103724f, 0.063096f, -0.134924f, -0.010204f, -0.054652f, 0.131351f, 0.078785f, 0.015169f, -0.067260f, 0.149762f, 0.053473f, 0.143769f, 0.103316f, 0.155098f, 0.173483f, 0.227616f, 0.025389f, 0.123030f, -0.098099f, 0.171218f, -0.230478f, -0.004176f, -0.018950f, -0.209106f, 0.052149f, 0.166720f, 0.004381f, -0.218999f, -0.093356f, -0.034300f, -0.110368f, 0.132336f, -0.121548f, 0.032478f, 0.219084f, 0.007583f, 0.125225f, 0.005073f, -0.318401f, 0.018293f, -0.247740f, 0.113934f, 0.044682f, -0.006795f, 0.057764f, 0.020131f, -0.174532f, 0.072548f, 0.011030f, 0.120347f, -0.042901f, -0.110514f, 0.102748f, 0.031843f, -0.122936f, 0.095238f, 0.031942f, -0.115141f, 0.167614f, 0.077796f, 0.273306f, -0.273347f, -0.119601f, -0.133475f, 0.052096f, 0.107427f, 0.142306f, 0.148517f, 0.065305f, 0.136300f, 0.006965f, 0.163357f, 0.050027f, -0.057281f, 0.075580f, 0.179976f, 0.065398f, 0.154719f, -0.265246f, 0.032539f, -0.212007f, 0.069547f, -0.052989f, -0.074242f, 0.077836f, -0.049722f, -0.088886f, 0.040719f, -0.050705f, 0.076215f, -0.129106f, 0.170575f, 0.065992f, 0.075530f, -0.007555f, 0.009349f, 0.073013f, -0.099704f, -0.051030f, -0.051858f, -0.184265f, -0.183624f, 0.127663f, -0.156128f, 0.074011f, 0.073857f, -0.197642f, 0.055786f, -0.173629f, -0.055595f, -0.026293f, -0.064673f, -0.184914f, -0.109146f, 0.017491f, -0.189213f, -0.223788f, 0.112821f, -0.206763f, 0.003661f, -0.028863f, -0.044449f, -0.051016f, 0.202987f, 0.053117f, 0.100282f, -0.185661f, 0.040665f, -0.004080f, 0.076569f, -0.155579f, -0.032466f, -0.106609f, 0.064172f, -0.086840f, 0.092402f, 0.015996f, -0.154156f, -0.077073f, -0.001986f, -0.124227f, 0.214686f, -0.094842f, 0.173012f, 0.004070f, 0.095658f, -0.041220f, 0.138057f, -0.080746f, 0.036231f, -0.124716f, 0.029610f, -0.021257f, -0.040618f, -0.126028f, 0.044855f, -0.079876f, -0.157049f, 0.046222f, -0.063026f, -0.041621f, 0.130789f, -0.092223f, -0.080676f, 0.137155f, -0.125512f, -0.122668f, -0.078031f, -0.013516f, -0.090171f, -0.016174f, 0.082054f, 0.216967f, -0.104930f, 0.102043f, 0.028479f, -0.004964f, -0.203344f, 0.016618f, 0.049421f, -0.030165f, -0.015029f, -0.035804f, 0.084528f, -0.030630f, -0.037921f, -0.070347f, 0.132482f, -0.018359f, 0.001235f, -0.065515f, -0.031270f, 0.023963f, 0.095364f, 0.061045f, 0.211799f, -0.016104f, 0.061461f, -0.012692f, -0.059227f, 0.082592f, 0.032102f, -0.104314f, 0.042624f, -0.058385f, -0.123004f, -0.114036f, -0.018456f, -0.106164f, -0.041098f, 0.045282f, -0.109141f, 0.183538f, -0.054248f, 0.119714f, 0.012575f, -0.030707f, 0.062742f, -0.030406f, 0.126496f, -0.017199f, 0.036769f, 0.082512f, -0.008344f, -0.031439f, -0.142534f, -0.085340f, -0.041386f, -0.009987f, -0.148600f, 0.051372f, 0.073809f, 0.200194f, 0.006433f, 0.030294f, -0.075786f, -0.096989f, 0.148649f, -0.001603f, -0.093658f, 0.004776f, -0.031585f, 0.107242f, -0.099702f, 0.075046f, -0.083613f, 0.032102f, 0.066558f, -0.087776f, 0.001757f, 0.052751f, 0.002340f, -0.021125f, 0.057666f, 0.073991f, -0.081327f, 0.013471f, -0.140587f, -0.051047f, -0.096083f, -0.123859f, -0.047819f, 0.113588f, -0.132079f, 0.138567f, -0.113522f, 0.108326f, -0.112902f, -0.069692f, 0.072554f, -0.124103f, -0.016816f, -0.029912f, 0.039105f, -0.116243f, 0.123126f, -0.049278f, 0.109944f, 0.092591f, -0.041337f, 0.180489f, 0.063812f, -0.023663f, 0.016942f, 0.000774f, -0.131181f, 0.062619f, -0.088692f, -0.156184f, -0.097833f, -0.146869f, -0.146908f, 0.136991f, -0.047252f, 0.181907f, -0.076853f, 0.071521f, -0.097872f, -0.133510f, 0.033214f, 0.157424f, 0.080897f, -0.085031f, -0.007070f, 0.073057f, -0.072062f, -0.035419f, -0.131398f, -0.054034f, -0.109978f, 0.044576f, 0.057601f, 0.038689f, 0.066594f, 0.007536f, 0.048766f, -0.141074f, -0.112081f, -0.079670f, -0.022508f, 0.018379f, 0.036172f, 0.121145f, 0.037386f, -0.157174f, -0.082022f, 0.014696f, 0.097057f, -0.081637f, -0.000610f, -0.122947f, 0.084637f, 0.006901f, 0.017520f, -0.020004f, 0.071564f, 0.097698f, -0.139643f, 0.039417f, -0.127939f, -0.028042f, -0.068687f, -0.023145f, 0.153974f, -0.125854f, -0.011147f, -0.076804f, 0.070824f, -0.104862f, -0.101767f, 0.042521f, 0.002780f, -0.174937f, 0.078658f, -0.017384f, -0.049845f, 0.109755f, 0.020288f, 0.050221f, -0.149125f, 0.093840f, -0.000330f, 0.014588f, 0.138703f, -0.013835f, 0.094138f, 0.016204f, -0.032574f, -0.055698f, -0.108913f, 0.002837f, -0.066521f, 0.067705f, 0.013208f, 0.105670f, -0.015196f, 0.065739f, -0.005356f, -0.012068f, 0.145215f, 0.040409f, -0.008921f, 0.124249f, 0.170638f, 0.083816f, 0.090718f, -0.030056f, -0.029444f, -0.027916f, -0.016355f, -0.087201f, -0.092003f, 0.047649f, 0.047559f, -0.176818f, -0.091898f, -0.127303f, 0.033181f, 0.205152f, -0.023977f, -0.009945f, -0.055278f, 0.063530f, 0.004800f, 0.031503f, -0.094628f, 0.014073f, 0.024953f, -0.102886f, -0.061373f, -0.136541f, 0.049320f, 0.052106f, -0.101524f, 0.123818f, 0.005769f, 0.091381f, 0.108322f, 0.130839f, -0.077601f, 0.042958f, 0.034507f, 0.102194f, 0.124334f, -0.123859f, -0.066020f, 0.080184f, -0.056284f, -0.169187f, 0.115298f, 0.078168f, 0.069046f, 0.119589f, 0.082387f, -0.076701f, 0.078011f, 0.017406f, 0.055526f, -0.108295f, 0.093167f, 0.003105f, -0.017335f, 0.105668f, 0.152384f, -0.080382f, -0.077795f, 0.056594f, 0.096890f, 0.003915f, -0.112452f, 0.033858f, -0.121752f, -0.178143f, -0.115038f, -0.076343f, -0.067209f, -0.013762f, 0.082452f, 0.016074f, 0.097209f, 0.012833f, 0.164853f, -0.066190f, 0.004666f, -0.058249f, -0.068174f, 0.072105f, -0.062799f, -0.024749f, -0.123118f, -0.080094f, -0.082008f, 0.113519f, 0.053898f, -0.002415f, -0.161244f, 0.147618f, -0.047028f, -0.159906f, 0.047115f, 0.022655f, 0.138494f, 0.115315f, 0.141519f, -0.068918f, 0.021574f, 0.080205f, -0.010491f, 0.035375f, 0.107974f, 0.081078f, -0.058381f, -0.076605f, -0.031848f, -0.059956f, 0.136781f, -0.066073f, -0.028264f, 0.053459f, -0.130259f, 0.027054f, 0.019150f, -0.116849f, 0.015051f, -0.143698f, -0.057467f, -0.062449f, -0.074260f, -0.172851f, -0.008632f, -0.075904f, 0.098271f, 0.133267f, -0.059198f, -0.079890f, -0.065667f, 0.151891f, 0.012731f, -0.013443f, 0.055401f, -0.095110f, -0.027421f, -0.166713f, 0.127660f, 0.032599f, -0.081982f, 0.114015f, 0.085631f, -0.010091f, -0.099122f, 0.031785f, -0.067798f, -0.083589f, -0.045048f, -0.018043f, -0.099031f, 0.021392f, 0.089389f, -0.120025f, 0.011761f, 0.079132f, 0.187694f, 0.125381f, 0.101138f, 0.002046f, 0.085406f, -0.082437f, 0.081089f, -0.157064f, 0.079775f, -0.124650f, -0.060302f, 0.065680f, -0.056161f, 0.019729f, 0.049334f, -0.050217f, 0.090309f, 0.047140f, -0.002709f, -0.240946f, 0.072883f, 0.070371f, 0.034317f, -0.103892f, 0.120884f, -0.017188f, -0.147304f, -0.124896f, 0.079990f, -0.112626f, 0.064760f, -0.189355f, -0.082895f, 0.003478f, 0.027214f, -0.035714f, 0.083678f, -0.095431f, 0.008816f, 0.029079f, 0.205434f, 0.022834f, -0.022876f, 0.059190f, 0.010165f, -0.006320f, -0.114714f, -0.047506f, 0.032635f, 0.067847f, 0.034008f, -0.030742f, -0.047029f, 0.025466f, 0.055128f, 0.017959f, -0.017655f, 0.153435f, -0.080128f, -0.033655f, 0.130138f, 0.117601f, -0.108608f, -0.065084f, 0.063790f, 0.061308f, -0.037069f, 0.096775f, 0.087639f, -0.127519f, -0.073142f, -0.121482f, -0.092847f, -0.161363f, 0.031800f, 0.155919f, 0.004135f, 0.118655f, 0.113681f, -0.006404f, 0.122946f, 0.109352f, -0.114941f, 0.004384f, -0.013092f, 0.018256f, -0.128676f, -0.030614f, -0.043730f, -0.090707f, 0.039255f, 0.093341f, -0.011295f, 0.125170f, 0.038362f, -0.017502f, 0.153475f, 0.092685f, -0.161966f, 0.176104f, -0.128580f, 0.053649f, 0.098716f, 0.085448f, 0.040785f, -0.054430f, -0.090392f, -0.005566f, 0.064419f, -0.121948f, -0.103770f, 0.216435f, 0.050416f, 0.094772f, 0.056248f, 0.069456f, -0.019224f, -0.004005f, -0.160858f, 0.019271f, 0.069972f, 0.071572f, 0.031446f, 0.063975f, 0.047059f, -0.062584f, -0.177101f, -0.061673f, -0.063142f, -0.088591f, -0.095884f, 0.094052f, 0.070106f, 0.067016f, -0.076023f, -0.063983f, 0.033813f, 0.005475f, -0.024614f, 0.069497f, 0.039231f, 0.075594f, 0.116550f, -0.025551f, -0.119598f, 0.117388f, -0.045682f, -0.063844f };
static const float motion_direct_model_layer_1_biases[10] = { 0.107810f, -0.090808f, 0.091525f, 0.217262f, 0.108519f, -0.027108f, 0.000171f, 0.018401f, 0.079007f, -0.104193f };
static const float motion_direct_model_layer_1_weights[200] = { 0.354141f, 0.401410f, -0.191440f, 0.195620f, -0.150384f, -0.172929f, 0.393432f, 0.171511f, -0.256004f, 0.302169f, 0.069149f, -0.171638f, -0.028489f, -0.143157f, -0.052384f, 0.370864f, 0.264285f, -0.150263f, -0.126693f, 0.240867f, 0.351365f, 0.218344f, -0.195267f, -0.143816f, 0.147679f, 0.162426f, -0.119260f, -0.216701f, -0.139645f, 0.012305f, 0.067832f, 0.371398f, -0.128063f, 0.092868f, 0.105170f, 0.117378f, -0.190504f, 0.332496f, 0.260583f, 0.482787f, -0.081643f, 0.413240f, 0.130854f, -0.216710f, 0.004186f, -0.157518f, 0.073542f, -0.118352f, -0.108282f, -0.210534f, -0.217584f, 0.234391f, 0.122757f, -0.274301f, 0.030810f, 0.028311f, 0.291486f, -0.017096f, -0.157534f, 0.373333f, -0.170442f, 0.230657f, 0.400147f, 0.004004f, -0.049345f, -0.061527f, -0.282612f, 0.324440f, 0.033650f, 0.198006f, -0.176971f, 0.181502f, -0.172943f, -0.077193f, 0.059546f, -0.008758f, -0.256497f, -0.209712f, 0.353638f, 0.210781f, 0.257635f, -0.182859f, -0.130218f, 0.275678f, -0.086106f, 0.133744f, 0.395845f, -0.053159f, -0.297052f, 0.263600f, 0.394517f, 0.093289f, -0.098950f, 0.129214f, 0.102549f, -0.155274f, 0.008884f, 0.434995f, -0.186459f, -0.052289f, 0.254157f, -0.068839f, -0.062668f, 0.080771f, -0.094108f, -0.060484f, -0.296779f, 0.124956f, 0.271985f, 0.092078f, 0.294584f, -0.165583f, -0.170180f, 0.315475f, -0.040560f, -0.144999f, -0.001728f, 0.284804f, -0.240066f, -0.029333f, -0.183596f, 0.030248f, -0.109650f, 0.315704f, -0.018396f, 0.314718f, 0.191448f, -0.123678f, 0.445524f, 0.081095f, -0.132688f, 0.292637f, 0.218653f, 0.116433f, -0.021048f, 0.032588f, -0.312159f, 0.317256f, 0.133977f, -0.102813f, 0.242263f, -0.332551f, 0.484568f, 0.420203f, -0.027597f, -0.045418f, 0.165874f, -0.222956f, -0.202318f, -0.251602f, -0.169457f, -0.058987f, 0.034959f, -0.191981f, -0.075133f, -0.043595f, 0.197513f, -0.238416f, -0.037019f, -0.206602f, 0.054558f, 0.409647f, 0.098498f, -0.242899f, -0.093927f, -0.119957f, -0.058088f, -0.243487f, 0.276523f, 0.012706f, 0.366147f, -0.119451f, -0.085083f, -0.011836f, 0.272079f, 0.104927f, 0.079310f, -0.231604f, -0.209992f, 0.277508f, 0.255078f, -0.371592f, -0.147273f, 0.366344f, -0.084179f, 0.105711f, -0.259869f, -0.011584f, 0.178701f, -0.289631f, 0.132831f, 0.127765f, 0.030006f, -0.144975f, -0.114604f, 0.364271f, 0.100236f, 0.066915f, 0.081545f, 0.146681f };
static const float motion_direct_model_layer_2_biases[6] = { 0.128218f, -0.299278f, -0.004594f, 0.054105f, -0.103691f, 0.190430f };
static const float motion_direct_model_layer_2_weights[60] = { -0.684099f, 0.033587f, 0.037229f, 0.210739f, -0.743757f, -0.070604f, -0.297172f, 0.413420f, -0.398004f, -0.230431f, 0.482107f, -0.143741f, 0.569485f, 0.052368f, -0.209821f, -0.562699f, 0.302571f, 0.021089f, 0.331601f, -0.383819f, 0.079997f, 0.417587f, -0.184004f, 0.208119f, -0.673011f, 0.032343f, 0.595815f, 0.437371f, 0.314839f, -0.333397f, 0.192725f, 0.466464f, -0.754772f, -0.635940f, -0.063277f, -0.069247f, -0.170730f, 0.445183f, -0.320384f, -0.392333f, -0.550899f, 0.297952f, -0.539569f, -0.639314f, 0.476333f, -0.155246f, 0.192545f, -0.512095f, 0.466564f, -0.679410f, 0.301220f, -0.462922f, 0.360131f, 0.106502f, -0.175070f, 0.321551f, 0.012365f, -0.027246f, 0.533604f, -0.653069f };
static float motion_direct_model_buf1[102];
static float motion_direct_model_buf2[102];
static const EmlNetLayer motion_direct_model_layers[3] = { 
{ 20, 102, motion_direct_model_layer_0_weights, motion_direct_model_layer_0_biases, EmlNetActivationRelu }, 
{ 10, 20, motion_direct_model_layer_1_weights, motion_direct_model_layer_1_biases, EmlNetActivationRelu }, 
{ 6, 10, motion_direct_model_layer_2_weights, motion_direct_model_layer_2_biases, EmlNetActivationSoftmax } };
static EmlNet motion_direct_model = { 3, motion_direct_model_layers, motion_direct_model_buf1, motion_direct_model_buf2, 102 };

    int32_t
    motion_direct_model_predict(const float *features, int32_t n_features)
    {
        return eml_net_predict(&motion_direct_model, features, n_features);
    }
    

    int32_t
    motion_direct_model_regress(const float *features, int32_t n_features, float *out, int32_t out_length)
    {
        return eml_net_regress(&motion_direct_model, features, n_features, out, out_length);
    }
    

    float
    motion_direct_model_regress1(const float *features, int32_t n_features)
    {
        return eml_net_regress1(&motion_direct_model, features, n_features);
    }
    