
#include <eml_net.h>
static const float anomaly_model_layer_0_biases[20] = { -0.017542f, -0.001337f, -0.015102f, -0.021100f, 0.007500f, -0.008409f, 0.019322f, 0.013387f, -0.011666f, -0.016549f, 0.007916f, 0.012792f, 0.023944f, -0.015491f, -0.009571f, 0.020512f, 0.010964f, 0.001856f, -0.017499f, -0.017151f };
static const float anomaly_model_layer_0_weights[2040] = { 0.110001f, -0.202515f, 0.102795f, 0.016302f, -0.103861f, -0.177055f, -0.208231f, 0.110993f, -0.063766f, 0.195704f, -0.173236f, -0.118016f, -0.137050f, -0.210004f, 0.154176f, -0.051682f, -0.154037f, -0.150650f, -0.199518f, 0.005460f, -0.102761f, 0.178698f, -0.078874f, -0.082191f, 0.200156f, -0.125247f, 0.060267f, 0.164586f, -0.089817f, 0.181793f, 0.176376f, 0.075957f, -0.069905f, -0.061532f, 0.014045f, 0.164877f, 0.168095f, -0.078550f, -0.173555f, 0.179908f, 0.200438f, 0.081331f, 0.229731f, -0.083349f, 0.171624f, 0.079022f, 0.009731f, 0.085069f, -0.191467f, 0.184257f, 0.087092f, 0.005433f, -0.076862f, 0.065861f, 0.168749f, -0.204698f, 0.149230f, 0.127518f, -0.149796f, -0.135925f, 0.009329f, 0.098902f, -0.134810f, -0.175938f, -0.189824f, -0.067533f, 0.201917f, -0.028504f, 0.139118f, -0.061010f, 0.063359f, 0.206436f, 0.073166f, 0.003024f, 0.185539f, 0.136080f, 0.138135f, 0.185188f, -0.031829f, 0.014204f, 0.146893f, -0.114886f, -0.171547f, -0.033328f, -0.030088f, -0.192553f, -0.163217f, 0.213551f, -0.040283f, -0.147636f, -0.042013f, 0.050024f, 0.179705f, -0.077304f, -0.126332f, -0.221354f, -0.183037f, -0.186942f, -0.124659f, -0.080067f, 0.177408f, -0.103424f, 0.043676f, -0.186760f, -0.091253f, 0.103273f, -0.093473f, -0.039359f, 0.012421f, 0.038267f, -0.033201f, 0.119397f, -0.191137f, -0.028280f, 0.183944f, 0.091229f, -0.009092f, 0.016536f, -0.204920f, -0.058863f, 0.000933f, 0.162765f, 0.007277f, -0.191536f, -0.038063f, 0.041053f, -0.222408f, 0.036389f, 0.145458f, -0.125152f, -0.145487f, -0.149349f, -0.165758f, -0.091785f, 0.087775f, 0.167489f, -0.043117f, -0.014077f, 0.123514f, 0.102704f, -0.149929f, 0.113358f, -0.041806f, 0.183340f, -0.090659f, 0.143018f, -0.052656f, -0.198033f, 0.000207f, -0.126129f, -0.131732f, 0.038364f, 0.167870f, 0.114903f, -0.123568f, -0.038365f, 0.067806f, -0.111834f, -0.162665f, 0.133555f, -0.186497f, 0.107246f, -0.087393f, 0.236675f, -0.019919f, 0.078968f, 0.092260f, 0.028799f, -0.058998f, 0.102667f, 0.205756f, 0.109673f, 0.215019f, -0.111797f, -0.157657f, 0.164369f, -0.096525f, 0.139702f, 0.203037f, 0.035568f, 0.193343f, 0.190733f, 0.049631f, -0.073499f, 0.031598f, -0.020480f, 0.196056f, 0.044049f, -0.144866f, 0.132300f, -0.139354f, 0.073172f, -0.047156f, -0.186940f, 0.116676f, 0.239006f, 0.194616f, 0.149116f, -0.136788f, 0.165445f, 0.103729f, -0.141762f, 0.190738f, 0.115789f, -0.035786f, 0.046001f, -0.193039f, 0.063786f, 0.141565f, 0.182168f, -0.135366f, -0.061583f, 0.199222f, 0.183389f, -0.115116f, -0.143603f, 0.184578f, -0.146163f, -0.054300f, -0.193039f, -0.173029f, -0.221418f, 0.064626f, -0.172627f, 0.043979f, 0.030511f, 0.064015f, 0.008042f, 0.085966f, -0.124800f, 0.058564f, -0.200088f, 0.188099f, 0.055130f, 0.183477f, -0.018626f, -0.061588f, 0.025292f, -0.192414f, 0.170304f, -0.211094f, -0.105503f, 0.009158f, -0.164072f, 0.108724f, -0.197471f, -0.201600f, 0.026390f, 0.007176f, -0.074115f, -0.052595f, 0.022584f, -0.106964f, 0.200758f, 0.088079f, 0.123069f, -0.190384f, -0.151695f, -0.048291f, 0.018900f, 0.117503f, 0.037028f, -0.194298f, -0.060038f, 0.084320f, 0.198515f, 0.049565f, -0.050575f, 0.121902f, 0.076165f, -0.202380f, 0.097503f, -0.057321f, 0.047319f, 0.192862f, 0.220507f, 0.226474f, 0.155057f, -0.062464f, -0.200204f, 0.143743f, -0.232492f, 0.199926f, -0.068211f, -0.178001f, 0.085503f, 0.099879f, -0.095743f, -0.019652f, 0.078855f, -0.026555f, -0.154143f, 0.058254f, -0.151296f, -0.030719f, -0.051839f, -0.011327f, -0.025452f, 0.046114f, -0.188336f, 0.101006f, -0.043287f, 0.067175f, 0.106203f, 0.200314f, 0.119092f, 0.155636f, -0.038288f, 0.145296f, -0.162076f, -0.135881f, 0.141239f, 0.076760f, -0.100547f, 0.163800f, -0.048527f, 0.126564f, -0.201995f, 0.069263f, 0.131562f, 0.007643f, -0.174777f, 0.148054f, -0.104245f, 0.061976f, 0.022397f, -0.158069f, -0.125196f, -0.012731f, 0.074211f, 0.091049f, 0.110089f, -0.059322f, 0.136677f, -0.035733f, -0.096500f, 0.188001f, 0.150348f, 0.041527f, 0.083831f, -0.131292f, -0.058920f, 0.175512f, 0.209667f, -0.051391f, -0.121750f, -0.169555f, -0.027428f, -0.085296f, 0.128648f, -0.025970f, 0.089168f, 0.233970f, 0.034185f, -0.207378f, 0.196061f, -0.058205f, -0.073721f, -0.158220f, 0.164852f, 0.134306f, 0.180796f, 0.225609f, 0.011268f, -0.166313f, 0.133564f, -0.049560f, -0.034186f, -0.021231f, 0.086134f, 0.196433f, 0.146475f, -0.050154f, -0.106808f, -0.175479f, -0.145719f, 0.217233f, 0.144266f, 0.106023f, -0.228604f, -0.014801f, -0.173130f, -0.212943f, -0.001874f, 0.139692f, -0.123712f, -0.138083f, 0.143320f, 0.198175f, 0.035400f, -0.159005f, 0.037489f, 0.044762f, 0.117385f, -0.208954f, -0.148901f, -0.011161f, 0.135174f, 0.127503f, 0.074285f, 0.016389f, -0.082937f, 0.057777f, -0.161816f, -0.016933f, 0.144431f, -0.153581f, 0.092992f, -0.019654f, -0.148706f, 0.047736f, 0.176145f, -0.209423f, 0.071984f, 0.134625f, -0.140803f, 0.205949f, -0.210518f, -0.158972f, -0.116404f, 0.009044f, 0.083454f, 0.189841f, 0.219863f, -0.188709f, -0.183010f, 0.228781f, -0.159387f, 0.069880f, 0.120067f, -0.131726f, -0.205655f, -0.050804f, 0.191445f, -0.060588f, -0.012025f, 0.076737f, -0.010805f, -0.077609f, -0.190134f, -0.212415f, 0.100556f, 0.075188f, 0.206653f, -0.182969f, 0.038591f, 0.023948f, -0.130747f, -0.193975f, 0.042228f, 0.180856f, -0.014230f, 0.002335f, 0.102490f, -0.029786f, 0.073816f, -0.064600f, 0.173678f, 0.161238f, -0.177341f, 0.008178f, -0.152458f, 0.078032f, -0.059270f, 0.163461f, 0.114863f, 0.050853f, -0.019820f, -0.233505f, -0.108920f, -0.204711f, -0.146674f, 0.043797f, -0.081610f, 0.010509f, 0.111059f, 0.086973f, -0.034759f, -0.115195f, -0.096659f, -0.113647f, -0.161624f, -0.206497f, 0.102475f, -0.085195f, -0.086326f, -0.174721f, -0.195683f, -0.204838f, 0.173745f, -0.010519f, -0.176132f, 0.062156f, -0.005838f, 0.179642f, 0.229822f, -0.091790f, -0.194947f, -0.072580f, -0.217817f, -0.017142f, -0.038603f, -0.118509f, 0.040709f, -0.044503f, 0.009899f, 0.051759f, -0.007526f, -0.141882f, 0.058531f, -0.011269f, 0.030663f, -0.166628f, -0.209198f, 0.086091f, 0.118479f, -0.074397f, 0.172555f, -0.125759f, 0.036659f, 0.011217f, -0.150752f, 0.143180f, 0.064165f, -0.014077f, -0.068906f, 0.047074f, 0.131295f, 0.168914f, -0.035846f, 0.216480f, -0.025881f, 0.047044f, 0.031544f, 0.171092f, 0.099236f, 0.195845f, 0.188587f, -0.201930f, -0.199166f, 0.133135f, -0.108963f, 0.013699f, 0.179538f, -0.194259f, 0.159243f, 0.125454f, -0.224139f, -0.159402f, -0.094627f, -0.006964f, 0.094160f, -0.187734f, 0.206387f, -0.002045f, 0.022900f, -0.118328f, 0.029349f, -0.144717f, -0.068011f, -0.019532f, 0.009067f, 0.046218f, -0.087519f, 0.008317f, -0.001910f, -0.021669f, 0.065839f, 0.087540f, 0.022747f, -0.097983f, 0.122491f, -0.142276f, -0.151180f, -0.167763f, 0.138261f, -0.049063f, 0.161233f, -0.119939f, 0.133242f, 0.005424f, -0.188404f, -0.047018f, -0.079812f, 0.068960f, 0.012028f, 0.026253f, -0.204465f, -0.164342f, 0.142745f, 0.137194f, 0.049904f, 0.232002f, 0.104069f, 0.075220f, 0.152106f, -0.202636f, 0.096082f, -0.032639f, 0.078540f, -0.004567f, 0.197254f, -0.161424f, 0.087884f, -0.199476f, -0.085566f, 0.168373f, -0.200162f, 0.092240f, 0.141179f, -0.216575f, 0.120917f, -0.208881f, -0.069427f, -0.016747f, 0.038656f, -0.167392f, -0.198330f, 0.028247f, -0.069780f, -0.099652f, 0.162287f, 0.157212f, 0.084102f, -0.077244f, -0.078223f, 0.209532f, 0.091951f, -0.116420f, 0.092266f, -0.133794f, -0.001224f, 0.224141f, -0.149284f, -0.234613f, -0.108892f, -0.059520f, -0.057179f, 0.044509f, 0.090235f, 0.034624f, 0.097511f, -0.032700f, -0.175629f, -0.120329f, 0.058086f, 0.198216f, -0.123606f, -0.029795f, 0.151753f, -0.133038f, 0.050464f, -0.074673f, 0.086194f, -0.030559f, 0.149814f, 0.171108f, 0.108197f, 0.161925f, -0.211119f, -0.156909f, 0.148082f, -0.014349f, -0.041726f, -0.206982f, 0.051375f, 0.153723f, -0.006429f, 0.049949f, 0.198507f, -0.089432f, -0.000509f, -0.140941f, 0.120998f, -0.045120f, -0.074195f, -0.173620f, 0.162770f, 0.127522f, -0.035989f, -0.024634f, -0.027901f, 0.224488f, 0.054667f, 0.035126f, -0.202950f, 0.187588f, -0.136865f, 0.171579f, 0.151497f, 0.176970f, -0.015107f, 0.088995f, -0.145893f, -0.129297f, -0.127544f, 0.083617f, 0.047417f, -0.094719f, 0.061999f, 0.179176f, 0.156128f, -0.042823f, -0.036919f, 0.090831f, -0.208981f, 0.030634f, 0.183382f, 0.152861f, 0.077226f, -0.108977f, 0.074454f, 0.187117f, 0.110720f, -0.021625f, -0.081298f, 0.011290f, -0.209789f, -0.096617f, 0.147332f, 0.108912f, -0.114640f, 0.028624f, 0.028822f, -0.136541f, 0.055384f, -0.013552f, -0.057700f, -0.049056f, -0.094628f, 0.208839f, -0.073474f, -0.216110f, 0.142140f, 0.222842f, -0.216857f, 0.225383f, 0.015330f, -0.162827f, -0.089788f, 0.021279f, -0.071403f, -0.057126f, 0.139174f, 0.133612f, 0.039734f, -0.203734f, -0.031272f, 0.129182f, 0.051101f, 0.069698f, 0.112085f, 0.118748f, -0.132685f, 0.126878f, 0.180722f, -0.220253f, -0.009226f, 0.057416f, 0.160642f, -0.170528f, -0.145182f, -0.055544f, 0.076005f, -0.092203f, -0.154710f, 0.120350f, 0.022170f, 0.017747f, -0.142769f, 0.206982f, 0.101004f, 0.234323f, 0.117518f, -0.215087f, -0.092011f, -0.225008f, 0.111419f, -0.023520f, 0.092829f, 0.184683f, -0.021072f, -0.061567f, 0.004762f, -0.009474f, -0.083307f, 0.039918f, -0.175829f, -0.116817f, 0.057434f, -0.168249f, 0.217875f, 0.102568f, 0.204195f, -0.103850f, 0.015253f, -0.075214f, -0.228230f, 0.106354f, -0.203871f, 0.097216f, -0.093834f, 0.165642f, -0.024341f, -0.026762f, 0.007842f, -0.074820f, -0.066506f, -0.051269f, -0.080784f, -0.010796f, -0.137583f, 0.077344f, 0.077778f, -0.123239f, 0.074615f, -0.219597f, -0.230190f, -0.004614f, 0.018937f, -0.025954f, 0.066518f, 0.043424f, -0.006132f, -0.097730f, 0.058586f, -0.130836f, 0.168494f, -0.063793f, 0.185528f, -0.175846f, 0.200257f, -0.098083f, 0.193294f, 0.086647f, -0.116387f, 0.172992f, 0.196829f, 0.004021f, 0.126106f, 0.096042f, -0.122326f, -0.084415f, -0.014755f, -0.003636f, 0.169810f, -0.204158f, 0.079533f, 0.014246f, -0.157418f, -0.115131f, -0.082120f, 0.036389f, -0.080730f, -0.061444f, 0.164711f, -0.050152f, -0.021310f, 0.041031f, -0.048457f, -0.199464f, 0.166960f, -0.169452f, 0.212821f, -0.143881f, -0.222992f, -0.062035f, 0.006272f, -0.223092f, -0.078161f, -0.107643f, -0.158070f, 0.234734f, -0.090427f, -0.172560f, 0.144400f, 0.134209f, 0.136638f, 0.019684f, -0.089763f, 0.199029f, -0.147016f, 0.000590f, -0.052819f, -0.020063f, -0.030689f, -0.068124f, 0.228097f, -0.172601f, -0.226213f, -0.061737f, -0.071044f, -0.134189f, -0.135349f, -0.169543f, -0.222582f, 0.177479f, -0.105750f, -0.074919f, 0.121810f, 0.145432f, 0.147102f, -0.054660f, 0.030540f, 0.138149f, 0.085235f, -0.226379f, -0.051292f, 0.059052f, -0.103168f, 0.227301f, -0.042732f, -0.175940f, -0.143444f, -0.030972f, 0.057435f, -0.067115f, 0.200544f, 0.194125f, -0.004928f, -0.149158f, 0.158654f, -0.008902f, -0.200100f, -0.038124f, -0.056505f, -0.206842f, -0.105737f, -0.109791f, -0.102406f, -0.078364f, 0.187184f, 0.029350f, -0.184823f, 0.104777f, -0.082618f, -0.093330f, -0.063149f, -0.109328f, 0.096342f, 0.025167f, 0.030780f, 0.093134f, -0.057316f, 0.184242f, -0.094496f, -0.048992f, -0.158981f, -0.204374f, -0.109301f, -0.108231f, -0.213884f, -0.088412f, 0.055846f, -0.197954f, 0.156607f, -0.081429f, -0.045873f, -0.008177f, -0.181958f, 0.212604f, 0.015043f, -0.148125f, 0.067083f, 0.000362f, -0.232642f, -0.104359f, -0.020883f, 0.208977f, 0.204594f, 0.037568f, 0.231785f, 0.042019f, 0.066660f, -0.101414f, -0.132257f, -0.144930f, 0.074301f, 0.014977f, 0.016731f, -0.201829f, -0.160314f, 0.089010f, -0.211684f, 0.041613f, 0.116650f, -0.182176f, 0.118098f, 0.016668f, 0.158469f, -0.196263f, 0.148409f, 0.044929f, 0.088025f, 0.044948f, 0.176747f, 0.152806f, -0.230206f, -0.017239f, -0.132248f, -0.069226f, -0.051143f, -0.002900f, 0.120308f, -0.038122f, 0.082628f, -0.200280f, -0.064525f, -0.050062f, 0.180714f, -0.054101f, 0.133107f, 0.081791f, -0.103146f, -0.020330f, -0.124357f, 0.170818f, -0.206888f, -0.135250f, -0.088755f, -0.165812f, 0.129629f, -0.139383f, -0.051038f, -0.094818f, 0.192335f, -0.143879f, 0.200518f, 0.180048f, 0.133922f, 0.043815f, -0.076418f, -0.163000f, -0.049464f, -0.029006f, -0.163146f, -0.109938f, -0.051591f, -0.125232f, 0.039664f, -0.155960f, -0.213367f, 0.167848f, 0.070946f, -0.224636f, -0.180868f, 0.063641f, 0.117588f, 0.106842f, 0.037833f, -0.032719f, 0.073767f, -0.077515f, 0.181109f, 0.197378f, 0.118247f, 0.204282f, 0.062564f, -0.127017f, -0.021738f, 0.130382f, 0.033578f, -0.166131f, 0.030390f, -0.228331f, 0.030927f, -0.024862f, 0.093872f, -0.079244f, -0.097932f, -0.117042f, 0.079194f, -0.170916f, -0.214242f, -0.125684f, -0.044702f, 0.196753f, -0.017265f, -0.178661f, -0.089643f, 0.002247f, 0.149016f, -0.206995f, -0.001583f, -0.161324f, 0.013999f, 0.063876f, 0.072439f, -0.174309f, -0.091460f, 0.205366f, 0.057054f, 0.067830f, 0.189720f, 0.053160f, 0.231627f, 0.066879f, 0.101005f, 0.021402f, 0.157314f, 0.150041f, -0.077819f, -0.090211f, -0.157107f, -0.162236f, 0.050419f, -0.217361f, 0.184775f, 0.011073f, -0.164312f, -0.029008f, 0.048714f, -0.060483f, 0.122281f, 0.137493f, 0.084586f, 0.055911f, 0.023131f, -0.147958f, 0.150890f, -0.223107f, -0.136700f, -0.189310f, 0.105600f, -0.134096f, 0.014071f, -0.219752f, -0.184674f, -0.114699f, 0.179279f, 0.188936f, -0.181587f, -0.178181f, -0.100804f, 0.143067f, -0.055488f, -0.082063f, 0.149172f, -0.079672f, -0.194201f, 0.094295f, 0.081055f, 0.155365f, 0.177765f, 0.187160f, -0.024093f, -0.158393f, -0.078009f, -0.001589f, -0.024336f, -0.126696f, -0.149068f, 0.123030f, -0.110095f, -0.072239f, -0.179707f, 0.138811f, -0.090580f, 0.051083f, 0.091443f, -0.075116f, 0.197885f, -0.109534f, 0.086085f, 0.035824f, -0.192282f, -0.198877f, 0.115743f, -0.072762f, 0.137862f, -0.092926f, -0.105157f, 0.056351f, -0.142832f, -0.037854f, 0.108248f, 0.071049f, 0.081243f, 0.168700f, 0.014861f, -0.067652f, 0.033160f, 0.011901f, 0.128676f, -0.154010f, -0.201504f, -0.061604f, 0.058508f, -0.126593f, 0.070760f, -0.046973f, 0.092352f, 0.118233f, 0.227895f, -0.020042f, -0.051745f, 0.227074f, 0.080766f, 0.140324f, -0.115285f, 0.104017f, 0.191917f, -0.143388f, 0.024084f, 0.143009f, 0.106908f, 0.036595f, 0.182084f, -0.054222f, -0.160091f, -0.071097f, 0.182861f, 0.114670f, 0.151740f, 0.026724f, -0.052275f, -0.107185f, -0.000479f, -0.103979f, -0.236326f, -0.012572f, 0.002607f, 0.047084f, -0.131336f, -0.107594f, 0.195829f, -0.148427f, 0.169268f, 0.009762f, -0.056594f, -0.125439f, 0.006217f, -0.017714f, 0.120218f, 0.080231f, -0.165861f, 0.123138f, 0.191425f, -0.204814f, -0.067304f, 0.145189f, -0.144281f, 0.156942f, 0.046477f, 0.123073f, -0.093658f, -0.000406f, -0.061085f, -0.201154f, -0.062748f, 0.234688f, -0.066767f, -0.106245f, -0.219511f, 0.136586f, 0.007338f, 0.048311f, 0.201747f, -0.169979f, 0.061063f, -0.148225f, 0.183667f, 0.191988f, -0.122908f, 0.137569f, -0.171991f, 0.017373f, -0.120356f, -0.160686f, 0.045503f, -0.074963f, -0.078969f, 0.129650f, 0.191021f, -0.058025f, -0.115463f, 0.137719f, -0.110228f, -0.083537f, 0.080255f, -0.114815f, -0.225459f, 0.100735f, 0.136462f, 0.075535f, -0.163599f, 0.004616f, 0.177398f, 0.110937f, -0.114690f, -0.202863f, 0.188577f, -0.075146f, 0.126110f, 0.074241f, 0.144961f, -0.138753f, 0.161444f, 0.092685f, -0.039043f, -0.118627f, 0.116263f, -0.018789f, 0.149820f, 0.088523f, 0.175335f, -0.149972f, 0.208647f, -0.097314f, -0.158449f, -0.026266f, -0.104589f, -0.189561f, -0.017787f, -0.174560f, -0.079526f, 0.155195f, 0.204963f, -0.130516f, -0.139760f, 0.177154f, -0.056434f, -0.051013f, 0.184880f, -0.038248f, -0.139685f, 0.011260f, 0.086583f, 0.115703f, -0.199735f, -0.186038f, 0.081556f, -0.207656f, -0.069874f, 0.136385f, 0.056534f, -0.045247f, 0.098906f, 0.192624f, 0.085571f, -0.175829f, -0.016452f, -0.007422f, 0.129480f, -0.151795f, -0.185758f, 0.153690f, -0.071153f, 0.070590f, -0.093610f, 0.135371f, 0.148580f, 0.001672f, -0.111434f, -0.060128f, -0.198951f, 0.224273f, 0.078039f, -0.195232f, -0.020626f, 0.073588f, -0.112996f, -0.166743f, -0.008544f, -0.115189f, -0.020831f, -0.127862f, 0.175952f, 0.013406f, 0.221409f, -0.126140f, 0.118475f, -0.048077f, -0.198539f, -0.188634f, 0.173893f, -0.104885f, -0.031580f, 0.085391f, 0.075167f, 0.141058f, -0.049423f, -0.089532f, -0.092778f, -0.171424f, -0.226520f, 0.196158f, -0.158652f, -0.043327f, 0.090714f, -0.080510f, 0.222627f, 0.061867f, -0.004089f, -0.047764f, -0.127790f, 0.019651f, 0.053249f, 0.076191f, 0.211214f, -0.146320f, -0.131675f, -0.191655f, 0.109875f, 0.022183f, 0.239998f, -0.142451f, -0.129893f, 0.099809f, 0.174678f, 0.196407f, 0.010226f, -0.036841f, -0.089884f, -0.172752f, 0.033966f, -0.043709f, 0.146316f, -0.177401f, 0.016347f, 0.121222f, 0.185456f, 0.204008f, -0.092771f, -0.042780f, -0.150270f, -0.155365f, -0.109037f, 0.031147f, 0.236000f, -0.189967f, 0.133275f, 0.181098f, 0.042326f, 0.001781f, 0.101181f, 0.200343f, -0.097573f, -0.012188f, -0.039483f, -0.088352f, 0.206050f, 0.111582f, 0.132935f, 0.189500f, -0.149451f, 0.143736f, -0.060221f, 0.181859f, -0.018236f, 0.224521f, 0.146606f, 0.064897f, -0.038346f, -0.105343f, 0.030244f, -0.047996f, 0.207424f, -0.016992f, 0.126170f, -0.145500f, -0.062658f, 0.085514f, 0.129395f, -0.108327f, 0.025156f, 0.015810f, -0.116106f, 0.084992f, -0.040555f, 0.139859f, -0.003528f, 0.175381f, 0.040214f, 0.129097f, -0.069528f, 0.008573f, 0.080496f, 0.002491f, -0.156101f, 0.017882f, 0.003541f, -0.053322f, 0.209490f, -0.082904f, 0.172498f, -0.201407f, -0.195230f, -0.047005f, -0.182564f, 0.076203f, -0.086049f, -0.197526f, -0.157393f, 0.223998f, -0.128542f, -0.076708f, 0.167151f, -0.116260f, 0.067643f, -0.189242f, -0.007350f, 0.185446f, 0.168379f, 0.007336f, -0.167922f, 0.119745f, 0.099783f, -0.169409f, 0.089412f, 0.060510f, -0.127068f, -0.029315f, -0.030021f, 0.090274f, 0.158952f, 0.075011f, 0.085623f, 0.188923f, 0.104027f, 0.177745f, 0.051980f, -0.024451f, 0.224653f, -0.159802f, -0.089810f, -0.172312f, -0.131317f, -0.116448f, -0.081488f, -0.108521f, -0.007227f, -0.126987f, 0.146527f, -0.048976f, -0.109760f, -0.117929f, 0.066545f, -0.204708f, -0.210733f, -0.188821f, -0.138214f, 0.151819f, -0.100368f, -0.069711f, -0.206482f, -0.127457f, -0.070708f, -0.039198f, 0.139225f, -0.053943f, 0.109746f, 0.223928f, -0.183836f, 0.076515f, -0.193110f, -0.037186f, -0.216490f, 0.131627f, 0.153747f, 0.006332f, -0.019473f, -0.108011f, -0.081027f, -0.178037f, 0.188814f, 0.099403f, -0.170527f, 0.102563f, -0.204858f, -0.074514f, -0.124783f, -0.003905f, -0.171789f, 0.191432f, 0.167181f, 0.228971f, 0.199029f, -0.011694f, 0.039917f, 0.180054f, -0.231095f, -0.110235f, 0.004502f, -0.045833f, -0.078192f, -0.213059f, 0.134140f, 0.010832f, -0.152293f, 0.123234f, -0.140736f, 0.234511f, 0.151846f, -0.196847f, 0.222082f, 0.195695f, 0.038083f, -0.063818f, 0.179559f, -0.030465f, -0.178134f, 0.087917f, -0.048721f, 0.199806f, 0.222744f, -0.028295f, -0.084165f, 0.147429f, 0.197440f, 0.122354f, -0.032307f, 0.165145f, 0.027076f, 0.099483f, 0.006004f, 0.218675f, 0.068079f, -0.055656f, -0.161619f, -0.176192f, 0.132283f, -0.217950f, 0.113679f, -0.074307f, -0.080220f, -0.041689f, 0.069049f, -0.195805f, 0.177289f, -0.059708f, 0.075330f, -0.177638f, 0.006264f, -0.056096f, -0.071909f, -0.066705f, -0.025482f, -0.156131f, -0.113746f, -0.080796f, -0.138149f, 0.224889f, 0.142956f, -0.205861f, 0.141835f, -0.238667f, -0.099198f, 0.087996f, 0.063074f, -0.177948f, -0.060668f, 0.200265f, 0.022330f, 0.034653f, -0.133167f, -0.092601f, -0.052565f, 0.050942f, -0.048960f, 0.047082f, 0.179181f, 0.161755f, 0.075833f, 0.063554f, -0.099703f, -0.201451f, -0.229896f, 0.101970f, -0.080867f, -0.144239f, -0.165853f, 0.016060f, -0.117765f, 0.193617f, 0.143599f, -0.201084f, 0.064806f, 0.168536f, 0.100806f, -0.020724f, 0.208641f, -0.119400f, 0.179179f, -0.172268f, 0.071687f, 0.059197f, -0.043786f, -0.084686f, 0.177797f, -0.174876f, -0.035348f, 0.208302f, 0.023947f, 0.125759f, 0.001802f, -0.030369f, -0.070625f, 0.014422f, -0.095011f, 0.108985f, 0.082132f, 0.193510f, 0.172145f, -0.209868f, 0.033884f, -0.132211f, 0.201746f, 0.166352f, -0.162101f, 0.129271f, -0.004954f, -0.073015f, -0.008043f, 0.079838f, -0.187785f, 0.093943f, -0.195435f, 0.082340f, -0.070130f, -0.238083f, -0.131649f, -0.049363f, 0.095252f, 0.167263f, 0.008457f, 0.049375f, 0.107571f, -0.163466f, 0.024174f, 0.191441f, -0.099340f, 0.099311f, -0.098730f, -0.129736f, 0.193234f, 0.030263f, -0.238494f, -0.163624f, 0.192713f, -0.000750f, 0.001959f, -0.175606f, -0.118384f, 0.127059f, -0.165024f, -0.155135f, -0.193192f, -0.146926f, 0.169738f, -0.153833f, -0.175826f, 0.047254f, 0.073519f, 0.177906f, -0.145845f, 0.055654f, 0.207223f, 0.194205f, 0.060424f, 0.024584f, -0.175812f, -0.074150f, 0.187333f, 0.131335f, -0.128914f, 0.045173f, -0.043294f, -0.177724f, -0.024812f, 0.034623f, 0.015080f, -0.000428f, -0.160057f, 0.130407f, -0.123568f, 0.153028f, 0.011473f, 0.035666f, -0.219941f, 0.157676f, 0.024030f, 0.199242f, 0.085051f, -0.166764f, 0.030905f, 0.115612f, -0.154206f, -0.099193f, -0.164688f, -0.223283f, -0.016777f, -0.179105f, -0.040922f, 0.010837f, 0.123621f, 0.136118f, -0.100248f, -0.029280f, 0.007618f, -0.089782f, 0.002803f, -0.205201f, 0.160330f, -0.033505f, 0.172266f, 0.017711f, 0.077199f, -0.080675f, 0.106893f, 0.030922f, -0.026253f, -0.042821f, 0.111677f, -0.074867f, 0.098764f, -0.110467f, 0.169516f, 0.094959f, 0.167184f, 0.008803f, 0.122169f, -0.037292f, -0.120073f, 0.141348f, 0.163899f, 0.175948f, 0.014399f, 0.125774f, -0.195112f, -0.016264f, 0.056466f, 0.170850f, 0.126193f, -0.195967f, -0.216268f, 0.071785f, -0.053280f, 0.094945f, -0.172247f, 0.152097f, -0.083612f, -0.192337f, 0.213007f, -0.216654f, 0.100801f, -0.016656f, 0.119705f, -0.145976f, 0.027359f, -0.164653f, -0.107239f, 0.127731f, -0.159425f, 0.109946f, 0.150072f, 0.001346f, -0.037840f, -0.116724f, -0.216363f, -0.091532f, 0.132032f, 0.174680f, 0.016462f, 0.059154f, 0.035253f, 0.193228f, 0.189964f, 0.006201f, -0.175962f, 0.185384f, -0.014922f, 0.194918f, -0.079758f, 0.171550f, 0.167936f, -0.092456f, -0.106970f, -0.035502f, -0.040613f, -0.127437f, 0.048861f, 0.106285f, 0.179734f, -0.035459f, -0.051203f, -0.051446f, -0.170358f, 0.150075f, 0.183808f, -0.101746f, 0.166357f, 0.197457f, -0.166675f, -0.227918f, -0.089547f, -0.142929f, -0.049563f, -0.188090f, -0.015180f, 0.186972f, 0.059958f, 0.035860f, 0.061190f, 0.047380f, 0.154904f, -0.088035f, -0.052513f, 0.037895f, -0.003300f, 0.006529f, -0.152253f, 0.016577f, -0.044104f, -0.081795f, -0.025135f, 0.167393f, -0.086864f, 0.041156f, -0.155150f, 0.108277f, -0.108768f, 0.128859f, 0.075491f, -0.078333f, 0.097591f, -0.077529f, 0.124907f, -0.157784f, -0.198801f, 0.141030f, 0.144214f, 0.199347f, 0.119169f, -0.121416f, 0.080747f, -0.051159f, -0.186538f, -0.068833f, 0.116387f, -0.017956f, 0.072982f, -0.052371f, 0.187605f, 0.041133f, 0.163442f, -0.089208f, 0.183148f, -0.006036f, -0.217405f, -0.181633f, 0.202023f, 0.067680f, 0.074133f, 0.091321f, 0.017206f, -0.139862f, -0.193139f, -0.033632f, -0.031587f, -0.169198f, -0.156820f, 0.153080f, 0.078431f, 0.128644f, -0.086588f, -0.206542f, 0.125235f, -0.038102f, -0.219235f, -0.114386f, 0.190717f, 0.115906f, 0.001829f, 0.022943f, 0.086277f, -0.125259f, -0.089291f, 0.238242f, -0.032496f, -0.108772f, -0.027206f, -0.013885f, 0.135051f, 0.168274f, 0.190197f, -0.215743f, 0.083480f, -0.015936f, 0.151374f, 0.186634f, 0.054423f, -0.096673f, 0.120171f, -0.149623f, -0.141076f, 0.165027f, -0.192420f, -0.057496f, 0.188293f, -0.010622f, 0.136920f, -0.043025f, -0.072933f, 0.166225f, -0.151051f, 0.099735f, -0.188248f, 0.159414f, -0.163201f, 0.133508f, 0.126807f, -0.078824f, -0.139016f, -0.053612f, -0.201124f, -0.113050f, 0.092962f, -0.120393f, 0.034983f, -0.182555f, 0.193335f, 0.099181f, -0.139616f, 0.183734f, -0.002056f, -0.022160f, -0.010668f, 0.189289f, -0.051734f, 0.093661f, 0.172775f, -0.093679f, 0.020007f, -0.209894f, 0.086878f, 0.189474f, 0.182964f, 0.112004f, 0.018090f };
static const float anomaly_model_layer_1_biases[10] = { -0.018344f, -0.016739f, 0.023651f, -0.016527f, -0.017768f, 0.004034f, 0.017794f, 0.017416f, -0.015432f, -0.015920f };
static const float anomaly_model_layer_1_weights[200] = { 0.311151f, -0.135931f, 0.027449f, 0.280746f, 0.401180f, -0.448017f, 0.262573f, -0.140009f, -0.158479f, -0.143075f, 0.245737f, -0.037973f, 0.398084f, 0.267066f, 0.170632f, 0.060675f, 0.412045f, -0.088634f, -0.159332f, -0.180452f, 0.192151f, -0.329983f, -0.065331f, 0.436287f, 0.346191f, 0.178130f, -0.097512f, 0.007620f, -0.452366f, -0.056560f, 0.171180f, -0.443024f, 0.097053f, -0.185858f, 0.259383f, -0.295243f, -0.367622f, -0.254053f, 0.060521f, 0.242182f, 0.385989f, -0.422532f, 0.238046f, 0.197943f, -0.018145f, -0.062256f, -0.365932f, -0.124248f, -0.233460f, 0.129368f, 0.198139f, 0.094901f, -0.133514f, -0.289483f, -0.271899f, 0.091341f, -0.271617f, 0.416149f, 0.193834f, -0.145841f, 0.099943f, -0.367396f, 0.066725f, 0.033550f, -0.145212f, -0.182482f, -0.197434f, -0.292354f, -0.324381f, -0.016951f, 0.022951f, 0.069833f, -0.197777f, 0.175913f, -0.049672f, -0.051738f, 0.399684f, 0.220492f, 0.310612f, -0.098761f, 0.234148f, -0.390378f, -0.021081f, 0.242527f, 0.244521f, 0.302021f, 0.263524f, 0.359794f, 0.037960f, -0.205626f, -0.052926f, 0.347092f, -0.405550f, -0.450938f, -0.278487f, 0.224429f, -0.126309f, -0.010829f, 0.176188f, 0.211937f, 0.327621f, 0.096765f, -0.086426f, 0.429719f, -0.129427f, 0.385141f, -0.063267f, 0.153198f, 0.264105f, -0.201766f, -0.132939f, 0.317243f, 0.209788f, -0.240251f, 0.167345f, -0.155793f, 0.394636f, 0.368741f, 0.275918f, 0.265080f, -0.322621f, -0.013436f, 0.408282f, 0.230332f, -0.215621f, 0.254857f, 0.160135f, 0.417640f, 0.438034f, 0.411896f, 0.359345f, 0.381239f, 0.249119f, -0.326509f, -0.012659f, 0.022981f, -0.134982f, -0.093425f, 0.056103f, -0.361878f, 0.031499f, 0.281438f, -0.354463f, -0.107721f, -0.060453f, -0.270389f, 0.290286f, -0.110219f, 0.354251f, -0.036863f, -0.096314f, -0.128415f, 0.108703f, 0.059295f, -0.080317f, 0.364429f, -0.262070f, 0.154928f, -0.281021f, -0.062939f, -0.265979f, -0.340006f, 0.011502f, -0.184830f, 0.369929f, -0.262461f, 0.243672f, -0.397076f, -0.014323f, 0.401890f, -0.009092f, 0.320307f, -0.361884f, 0.060417f, -0.449479f, -0.218878f, -0.186129f, -0.253949f, 0.005411f, -0.273738f, 0.446700f, 0.228451f, -0.164744f, -0.044484f, 0.300204f, -0.349512f, 0.091604f, 0.120611f, 0.290778f, 0.154900f, 0.381081f, -0.345091f, -0.059889f, -0.400446f, 0.140477f, -0.390745f, 0.017630f, 0.073672f, 0.241805f, 0.029977f };
static const float anomaly_model_layer_2_biases[6] = { 0.020591f, -0.020860f, 0.020496f, -0.016975f, 0.020143f, -0.008252f };
static const float anomaly_model_layer_2_weights[60] = { 0.029520f, 0.368656f, 0.242991f, 0.049067f, -0.327500f, 0.328675f, -0.169573f, -0.113219f, -0.520676f, 0.032701f, -0.583780f, 0.521578f, 0.302170f, -0.390002f, 0.310643f, -0.086595f, -0.080227f, -0.056365f, 0.478018f, 0.601067f, -0.021109f, 0.345292f, -0.055352f, 0.143924f, 0.590989f, 0.550067f, -0.600813f, 0.582338f, 0.431236f, -0.145559f, -0.601321f, -0.362565f, -0.485047f, 0.542741f, 0.308521f, -0.240002f, 0.115594f, 0.076310f, -0.052526f, -0.251611f, -0.198412f, 0.581620f, 0.533976f, -0.053356f, 0.211273f, 0.482677f, -0.495215f, -0.479303f, 0.503735f, 0.088441f, -0.502825f, 0.017737f, -0.548423f, 0.330983f, -0.111906f, 0.243855f, -0.590704f, -0.349637f, 0.139131f, -0.074416f };
static float anomaly_model_buf1[102];
static float anomaly_model_buf2[102];
static const EmlNetLayer anomaly_model_layers[3] = { 
{ 20, 102, anomaly_model_layer_0_weights, anomaly_model_layer_0_biases, EmlNetActivationRelu }, 
{ 10, 20, anomaly_model_layer_1_weights, anomaly_model_layer_1_biases, EmlNetActivationRelu }, 
{ 6, 10, anomaly_model_layer_2_weights, anomaly_model_layer_2_biases, EmlNetActivationSoftmax } };
static EmlNet anomaly_model = { 3, anomaly_model_layers, anomaly_model_buf1, anomaly_model_buf2, 102 };

    int32_t
    anomaly_model_predict(const float *features, int32_t n_features)
    {
        return eml_net_predict(&anomaly_model, features, n_features);
    }
    

    int32_t
    anomaly_model_regress(const float *features, int32_t n_features, float *out, int32_t out_length)
    {
        return eml_net_regress(&anomaly_model, features, n_features, out, out_length);
    }
    

    float
    anomaly_model_regress1(const float *features, int32_t n_features)
    {
        return eml_net_regress1(&anomaly_model, features, n_features);
    }
    