
#include <eml_net.h>
static const float anomaly_model_layer_0_biases[20] = { 0.007042f, -0.016929f, 0.030766f, -0.001038f, -0.012079f, -0.005490f, 0.003676f, -0.030298f, 0.016574f, 0.019711f, -0.019600f, -0.023778f, 0.021090f, 0.045277f, -0.030584f, 0.025380f, -0.028127f, -0.004396f, 0.037954f, -0.017823f };
static const float anomaly_model_layer_0_weights[2040] = { -0.111322f, 0.157497f, -0.247270f, -0.003652f, -0.147912f, -0.205658f, -0.246015f, 0.080688f, -0.127496f, -0.144337f, -0.041554f, 0.128813f, -0.173366f, -0.077294f, -0.108527f, -0.018631f, 0.036831f, 0.186450f, -0.094330f, 0.116839f, 0.077818f, 0.190579f, 0.197500f, -0.155630f, -0.082107f, -0.177393f, 0.103942f, 0.005180f, 0.061520f, 0.022787f, -0.136429f, -0.006094f, 0.077431f, -0.159109f, 0.148723f, 0.025540f, -0.087365f, 0.079429f, -0.149230f, 0.068132f, 0.039228f, -0.080135f, 0.177530f, 0.184425f, 0.115031f, -0.137100f, 0.024007f, 0.031350f, -0.195794f, -0.206482f, -0.202652f, -0.053682f, -0.172896f, 0.020222f, -0.081558f, 0.111252f, -0.008929f, -0.059693f, 0.182838f, 0.108583f, 0.240640f, 0.096791f, -0.153034f, 0.050598f, -0.193558f, 0.177671f, -0.018703f, 0.015487f, 0.169307f, -0.054740f, 0.133130f, 0.175826f, -0.197583f, 0.263920f, -0.089942f, -0.228277f, -0.035691f, 0.122158f, -0.208756f, 0.000219f, -0.034883f, 0.163138f, 0.126768f, -0.179007f, -0.160294f, -0.188668f, 0.108858f, -0.149616f, 0.155663f, -0.056999f, 0.153716f, -0.196294f, -0.066054f, 0.091380f, -0.147120f, -0.121518f, 0.183592f, 0.197269f, 0.003836f, -0.134299f, -0.022848f, -0.091457f, -0.013397f, -0.142737f, 0.096626f, -0.073912f, 0.048253f, -0.044880f, 0.118632f, -0.184877f, -0.194467f, -0.123798f, -0.106079f, 0.256592f, 0.141478f, -0.144364f, 0.072194f, -0.153742f, -0.011549f, -0.011222f, -0.121567f, -0.022718f, -0.053275f, 0.031958f, 0.124084f, 0.073849f, -0.235458f, -0.178283f, -0.106536f, 0.165436f, -0.071063f, -0.006019f, 0.149488f, 0.062012f, -0.022357f, -0.166957f, 0.133504f, 0.072831f, 0.080208f, -0.181699f, -0.031407f, -0.061727f, 0.095339f, 0.111809f, -0.055379f, -0.165435f, -0.018022f, 0.124185f, -0.149682f, 0.109620f, 0.030824f, -0.187420f, -0.153571f, -0.024681f, -0.118114f, 0.189250f, -0.153848f, -0.062411f, 0.105306f, -0.027654f, 0.141165f, -0.048956f, -0.165116f, -0.160278f, -0.006437f, 0.163658f, 0.162843f, -0.077351f, 0.171603f, 0.147103f, 0.119741f, 0.134265f, 0.171254f, 0.195491f, -0.080112f, -0.222459f, -0.184336f, -0.095920f, 0.223609f, 0.079732f, -0.117031f, 0.180934f, 0.064297f, -0.138136f, 0.050189f, 0.068595f, 0.162519f, -0.087770f, 0.078147f, -0.158188f, -0.221250f, -0.171919f, -0.137264f, 0.157688f, 0.233067f, -0.180957f, -0.098449f, -0.051695f, 0.072896f, 0.154946f, 0.043267f, 0.158995f, -0.143336f, 0.215807f, -0.140877f, 0.174397f, -0.149491f, 0.167522f, -0.219245f, 0.228869f, -0.102281f, 0.169283f, 0.184382f, -0.170499f, 0.208833f, -0.229124f, 0.134379f, 0.223488f, 0.155893f, 0.201603f, -0.080174f, -0.011280f, -0.163716f, -0.111942f, -0.115565f, 0.049687f, 0.106809f, -0.147468f, -0.049478f, 0.057544f, -0.142705f, 0.005648f, -0.063975f, 0.035510f, 0.106143f, -0.121390f, 0.152433f, -0.118089f, 0.087622f, 0.188767f, 0.044470f, 0.089575f, 0.019833f, -0.157358f, -0.147994f, -0.025814f, -0.193173f, -0.154252f, 0.181003f, -0.036268f, -0.131858f, 0.043741f, 0.033728f, 0.040230f, 0.140293f, -0.231821f, -0.202830f, 0.147623f, 0.213003f, 0.161728f, 0.131782f, 0.147219f, -0.004725f, 0.096082f, -0.154283f, -0.048307f, -0.234206f, 0.138036f, 0.031885f, 0.051311f, 0.126399f, 0.177085f, 0.036154f, -0.115151f, 0.185583f, 0.096472f, 0.031109f, -0.173262f, -0.001428f, 0.066078f, 0.092485f, 0.212721f, -0.058622f, -0.203998f, 0.070148f, 0.002727f, -0.107852f, 0.169595f, -0.115978f, 0.101064f, 0.204139f, 0.064734f, 0.065021f, -0.128275f, 0.149969f, -0.016052f, 0.137699f, 0.224659f, -0.080455f, 0.206173f, 0.245002f, 0.061665f, -0.232467f, -0.202894f, 0.151649f, 0.193446f, 0.100335f, -0.205706f, -0.038258f, 0.017171f, 0.024310f, -0.190922f, 0.109320f, -0.094790f, 0.132759f, -0.137100f, 0.002986f, -0.042426f, 0.070291f, 0.096114f, 0.122278f, -0.139977f, 0.027418f, 0.210034f, -0.237122f, 0.195756f, -0.189363f, 0.037624f, 0.090669f, 0.081965f, -0.139479f, -0.207198f, 0.237842f, -0.027077f, 0.137555f, -0.107553f, 0.114360f, 0.038409f, -0.155264f, -0.172762f, 0.076858f, -0.049439f, -0.122268f, 0.061645f, 0.012497f, 0.202088f, -0.054323f, 0.047559f, 0.190126f, 0.017311f, -0.112976f, -0.086984f, 0.152934f, 0.025412f, 0.115465f, 0.175254f, -0.009660f, -0.124685f, -0.133996f, 0.101671f, -0.003985f, -0.042412f, 0.082746f, -0.195858f, 0.153473f, 0.189572f, -0.217630f, -0.076593f, -0.220031f, -0.044152f, 0.152904f, 0.188722f, 0.057654f, -0.191584f, 0.038887f, -0.086367f, 0.112045f, 0.073975f, -0.104831f, -0.143762f, -0.187004f, -0.166629f, 0.004934f, 0.181855f, -0.069766f, 0.184979f, 0.161215f, 0.177753f, -0.018886f, -0.041447f, 0.068256f, -0.185076f, -0.104696f, -0.032999f, 0.020717f, 0.093020f, -0.005248f, 0.129382f, -0.143217f, -0.191848f, 0.153186f, -0.204218f, 0.152733f, 0.119396f, 0.097022f, 0.073345f, 0.089381f, -0.114516f, 0.182314f, -0.144338f, -0.040618f, 0.065811f, -0.180381f, 0.086694f, -0.133557f, 0.093292f, -0.033367f, 0.205003f, 0.002021f, -0.090745f, 0.162139f, -0.095322f, -0.116009f, 0.086210f, -0.167632f, 0.063925f, 0.159699f, -0.017872f, 0.062113f, 0.229767f, -0.187003f, 0.110141f, 0.187042f, 0.207543f, 0.078473f, 0.088136f, -0.028569f, 0.207951f, -0.040889f, 0.118191f, -0.045093f, 0.157738f, 0.122003f, -0.071471f, 0.088410f, 0.132292f, -0.088408f, 0.141928f, 0.135122f, -0.133273f, 0.013574f, -0.193353f, -0.078468f, -0.130112f, 0.154228f, -0.062596f, -0.014882f, -0.090336f, -0.175265f, -0.008193f, -0.101215f, -0.071598f, -0.165531f, -0.050070f, -0.136240f, 0.004805f, -0.085111f, -0.176393f, 0.140063f, -0.070068f, -0.026357f, -0.150816f, 0.025328f, -0.153567f, -0.028216f, 0.129933f, -0.143265f, -0.170368f, -0.009874f, -0.185177f, -0.040225f, -0.217853f, -0.128844f, -0.204348f, -0.105816f, 0.090493f, -0.008941f, -0.080492f, 0.016262f, -0.023912f, 0.110384f, 0.177278f, 0.224446f, 0.028510f, -0.174611f, -0.175807f, -0.055730f, 0.001161f, -0.097126f, 0.237040f, 0.197118f, -0.005710f, -0.142586f, 0.206946f, 0.047142f, 0.128973f, -0.057175f, -0.201679f, -0.067496f, 0.188431f, -0.155004f, -0.209706f, -0.127940f, -0.206966f, -0.093415f, -0.132812f, 0.043457f, 0.133629f, 0.041982f, 0.228525f, 0.126107f, 0.013096f, 0.183821f, 0.214087f, 0.067397f, 0.185634f, 0.143386f, -0.153885f, 0.042429f, 0.000688f, 0.158211f, 0.043547f, -0.039062f, 0.084683f, -0.116293f, -0.061624f, 0.141809f, 0.210123f, -0.166595f, 0.054834f, 0.020455f, 0.023881f, -0.254069f, 0.023171f, 0.089018f, -0.197291f, -0.071622f, -0.113739f, 0.143076f, 0.142852f, -0.186171f, -0.144082f, 0.182495f, -0.223835f, -0.002335f, -0.007141f, -0.165691f, -0.128039f, 0.089370f, -0.190004f, 0.216780f, -0.029366f, 0.172081f, 0.040218f, -0.230938f, -0.100106f, 0.098687f, -0.002668f, 0.026973f, 0.102189f, -0.096366f, 0.080282f, -0.005889f, -0.157017f, 0.067484f, -0.028355f, 0.034933f, -0.021118f, 0.053842f, -0.090587f, 0.070666f, 0.105567f, 0.007443f, 0.160003f, 0.029058f, -0.049040f, 0.070784f, -0.169050f, 0.016003f, -0.004570f, -0.004614f, -0.156058f, -0.084852f, 0.168182f, -0.120379f, -0.083531f, 0.040239f, -0.005033f, 0.224092f, -0.018982f, -0.158769f, 0.200603f, -0.195796f, -0.003039f, 0.157996f, -0.016640f, 0.090770f, -0.034960f, -0.042842f, 0.170963f, 0.100139f, 0.093630f, 0.166096f, 0.065180f, 0.135545f, -0.155516f, 0.139802f, -0.142148f, -0.097928f, 0.038545f, 0.001962f, 0.052049f, -0.020542f, 0.225866f, 0.198089f, -0.024892f, -0.197244f, 0.046696f, -0.199649f, 0.102455f, 0.009199f, -0.188354f, -0.124038f, -0.073543f, 0.005671f, 0.076695f, 0.099830f, 0.195324f, 0.125531f, -0.124741f, -0.012952f, 0.219546f, 0.015427f, 0.128141f, 0.012023f, 0.053762f, 0.135961f, 0.100924f, 0.079723f, 0.199038f, 0.027435f, 0.209078f, 0.161803f, -0.212960f, 0.155863f, 0.199858f, -0.013007f, -0.023298f, 0.004389f, 0.152159f, -0.123671f, 0.079424f, 0.208802f, -0.173755f, -0.097104f, -0.161248f, 0.183059f, -0.054734f, 0.105117f, 0.066156f, -0.006523f, -0.008651f, 0.121341f, 0.115329f, 0.130366f, 0.073988f, -0.089007f, -0.058880f, 0.124911f, -0.033011f, 0.134612f, -0.180386f, -0.061923f, -0.127030f, 0.058488f, -0.083804f, 0.000551f, 0.082270f, -0.020084f, 0.086052f, -0.224013f, -0.129576f, 0.017028f, -0.226435f, -0.147464f, -0.120503f, -0.065405f, -0.051446f, 0.099082f, 0.071203f, -0.209103f, 0.038141f, 0.000200f, -0.112465f, -0.052652f, 0.238975f, -0.020540f, -0.023618f, 0.185956f, -0.146306f, 0.035356f, -0.200660f, -0.156660f, 0.094932f, 0.191447f, -0.047146f, -0.095357f, 0.034087f, -0.121541f, -0.097581f, -0.024746f, 0.007036f, -0.108443f, -0.169305f, 0.087799f, 0.218020f, 0.032362f, -0.097575f, -0.095945f, -0.035468f, 0.023468f, 0.184037f, 0.105109f, -0.194923f, 0.169622f, -0.110700f, -0.139757f, 0.021939f, -0.092274f, -0.034474f, 0.209692f, -0.114505f, 0.141530f, -0.056181f, 0.047505f, -0.201261f, -0.220930f, 0.004854f, -0.072656f, -0.159952f, -0.115125f, 0.158024f, 0.150850f, -0.109433f, 0.201504f, -0.042054f, -0.189066f, 0.168393f, 0.204664f, 0.003744f, 0.045961f, -0.071220f, -0.221249f, -0.216471f, 0.150100f, -0.071210f, 0.164735f, 0.073554f, 0.196041f, -0.116318f, -0.057095f, 0.166261f, -0.128400f, 0.131086f, 0.207672f, -0.150216f, 0.182192f, -0.147184f, 0.123853f, -0.093668f, -0.104351f, 0.100746f, 0.062010f, 0.042389f, -0.181598f, -0.097217f, -0.137520f, -0.092179f, -0.214342f, -0.166125f, -0.083627f, 0.181345f, 0.072386f, -0.083687f, -0.204289f, -0.067602f, 0.139227f, -0.029831f, -0.178498f, 0.246076f, 0.162434f, 0.051578f, 0.168906f, 0.131637f, -0.015172f, -0.202386f, -0.189947f, -0.100254f, -0.131631f, -0.190380f, -0.190468f, 0.107834f, 0.086351f, 0.069342f, 0.183973f, -0.053726f, -0.220330f, 0.054622f, 0.082399f, -0.020458f, 0.027278f, -0.189145f, 0.151249f, -0.202008f, -0.012260f, -0.086825f, 0.115698f, -0.030852f, -0.200783f, -0.083277f, 0.197893f, 0.225037f, -0.113678f, 0.030488f, 0.070308f, -0.029919f, 0.056897f, 0.108887f, 0.196628f, 0.074235f, 0.063427f, -0.143589f, -0.013853f, 0.082185f, 0.028157f, -0.103597f, -0.183720f, -0.066829f, 0.006757f, 0.145287f, 0.227358f, -0.109246f, -0.057550f, 0.206506f, -0.009651f, -0.026181f, -0.006626f, -0.029731f, -0.121406f, -0.141505f, -0.173440f, 0.085986f, 0.028320f, -0.075547f, -0.005062f, 0.059192f, 0.168678f, 0.085305f, 0.176934f, -0.028980f, 0.221175f, 0.179191f, 0.103559f, 0.022811f, 0.073019f, 0.006158f, -0.169450f, -0.118406f, 0.009261f, -0.066920f, -0.139731f, -0.205581f, -0.121566f, 0.006023f, 0.146714f, 0.177763f, 0.014336f, 0.054588f, 0.165213f, 0.129767f, -0.121646f, -0.027738f, -0.028325f, -0.017710f, -0.004836f, 0.005958f, -0.092806f, 0.190548f, 0.166145f, -0.129470f, 0.055104f, 0.163743f, -0.002971f, -0.063209f, 0.013179f, -0.003107f, 0.040058f, 0.107371f, 0.085762f, 0.226789f, -0.086732f, 0.032530f, 0.040202f, -0.026568f, 0.155600f, 0.009165f, 0.147651f, 0.012085f, -0.150565f, 0.217467f, 0.093824f, -0.203129f, -0.120750f, 0.183917f, -0.090947f, 0.022024f, -0.094448f, 0.007981f, 0.086508f, -0.115283f, 0.032843f, -0.210869f, -0.057212f, -0.048221f, 0.233926f, -0.081218f, -0.135267f, -0.194134f, 0.198725f, 0.160671f, 0.066767f, -0.117621f, 0.013398f, 0.011626f, 0.168278f, -0.044186f, 0.024509f, -0.221124f, -0.192220f, -0.155312f, 0.097592f, 0.102337f, -0.012496f, -0.016872f, -0.008852f, 0.094889f, 0.144612f, 0.012198f, 0.034469f, -0.182025f, -0.177086f, 0.145669f, -0.147571f, -0.046026f, 0.141833f, -0.068329f, -0.180557f, -0.020345f, -0.073874f, 0.098017f, -0.001605f, 0.150591f, -0.110240f, -0.157521f, -0.016093f, 0.096485f, 0.187505f, -0.005045f, 0.012539f, 0.104539f, -0.118934f, 0.178046f, 0.030261f, 0.098053f, 0.019718f, 0.044187f, -0.195980f, 0.078121f, -0.094889f, -0.092056f, 0.100195f, -0.214537f, 0.012132f, -0.010488f, 0.115324f, -0.021208f, 0.082315f, 0.040450f, 0.195203f, 0.104649f, 0.004265f, 0.166657f, 0.049065f, 0.080676f, 0.049404f, 0.165956f, -0.040191f, 0.142402f, -0.116881f, 0.021411f, -0.095053f, -0.210679f, 0.226406f, -0.111243f, 0.208887f, 0.068570f, -0.021542f, 0.083249f, 0.074286f, -0.191785f, -0.049765f, 0.066137f, 0.034502f, -0.216228f, -0.009652f, -0.123930f, 0.145967f, -0.051343f, -0.187107f, 0.187482f, 0.084424f, 0.147472f, -0.069820f, -0.176104f, -0.200243f, -0.083552f, 0.000649f, -0.186113f, -0.032744f, 0.187268f, -0.155664f, 0.109182f, -0.007526f, -0.056636f, -0.224993f, -0.135308f, -0.171665f, 0.063630f, 0.139506f, 0.191750f, 0.195745f, -0.206238f, -0.167989f, 0.086951f, -0.036534f, -0.088092f, -0.169864f, -0.182300f, 0.078566f, 0.158560f, -0.138046f, 0.137051f, 0.020537f, 0.151764f, 0.002725f, 0.010755f, 0.078919f, 0.077429f, -0.009761f, -0.189920f, 0.125508f, 0.008169f, -0.072335f, 0.184116f, -0.113434f, 0.065240f, -0.185063f, 0.111719f, 0.161867f, 0.010858f, 0.219691f, 0.205346f, 0.085544f, 0.029661f, 0.139052f, -0.149433f, 0.112861f, -0.191431f, -0.122892f, -0.086192f, -0.065065f, 0.007481f, -0.037451f, -0.143410f, 0.059221f, -0.215789f, -0.201979f, 0.216373f, -0.021451f, 0.095087f, -0.202240f, 0.072345f, 0.060933f, -0.058081f, 0.155628f, 0.020481f, 0.175951f, 0.069289f, -0.134556f, 0.240792f, 0.009161f, 0.138489f, 0.079869f, 0.053405f, 0.178190f, 0.133757f, 0.126572f, 0.050147f, -0.190256f, -0.170399f, 0.022934f, 0.019661f, -0.120984f, -0.001369f, 0.162389f, 0.034442f, 0.074050f, 0.024803f, 0.113938f, 0.108197f, 0.034352f, -0.066264f, -0.101417f, 0.071302f, -0.010419f, 0.174042f, 0.061172f, -0.013994f, 0.128497f, -0.120825f, -0.148662f, -0.144393f, -0.233135f, 0.118956f, 0.153929f, 0.029775f, 0.081704f, -0.130981f, -0.066006f, -0.154454f, 0.047198f, -0.009315f, 0.040718f, 0.149851f, -0.159321f, 0.104604f, -0.061141f, -0.042081f, 0.070276f, 0.007653f, -0.087278f, 0.025035f, 0.013071f, 0.000665f, -0.162415f, 0.100943f, -0.170560f, -0.193759f, -0.067812f, 0.062816f, -0.024165f, -0.020867f, 0.218278f, 0.182741f, 0.206598f, -0.006705f, -0.084664f, -0.049874f, -0.109771f, 0.026545f, 0.162134f, -0.151243f, 0.167943f, 0.039075f, -0.050958f, 0.183042f, 0.031576f, 0.132198f, 0.087812f, -0.128156f, -0.016156f, 0.091353f, -0.058766f, -0.056870f, 0.215615f, -0.145397f, 0.196709f, -0.010392f, -0.021574f, 0.028208f, -0.160150f, 0.040119f, 0.158460f, 0.224309f, -0.173875f, -0.001518f, -0.142907f, 0.035407f, -0.173600f, -0.029596f, -0.207667f, 0.023042f, 0.001389f, -0.075949f, 0.041955f, 0.024595f, -0.089049f, -0.000421f, -0.022405f, 0.028156f, -0.008111f, -0.032091f, 0.116544f, -0.017061f, -0.192060f, -0.104055f, -0.074626f, -0.122709f, 0.114357f, 0.142842f, 0.101362f, 0.168454f, -0.130801f, 0.033669f, -0.196553f, -0.050949f, 0.193022f, 0.151985f, 0.064037f, 0.111319f, 0.140269f, -0.045497f, 0.143952f, -0.102895f, -0.159474f, -0.118472f, -0.095234f, 0.200246f, 0.074369f, -0.054134f, -0.113597f, 0.039821f, 0.019351f, -0.094139f, 0.130453f, -0.131563f, 0.035139f, -0.060385f, -0.064497f, -0.026146f, -0.017639f, 0.164334f, -0.231408f, -0.115563f, 0.161420f, -0.126754f, -0.110851f, 0.216952f, 0.099142f, 0.177595f, -0.163060f, 0.057271f, 0.163376f, 0.225386f, -0.194007f, -0.024233f, -0.077974f, 0.102962f, 0.072982f, 0.221621f, -0.194411f, -0.168909f, -0.215835f, 0.038345f, 0.084414f, 0.145469f, 0.029339f, 0.131345f, 0.123525f, 0.114347f, 0.191722f, 0.082696f, -0.009516f, -0.139653f, 0.210874f, 0.159026f, -0.053695f, -0.135649f, -0.196139f, 0.169599f, -0.043186f, -0.063723f, -0.143070f, 0.190082f, 0.069511f, 0.142450f, -0.237492f, 0.069802f, -0.182824f, 0.175906f, 0.108058f, 0.098111f, 0.198791f, 0.140948f, -0.150895f, 0.039445f, 0.144502f, 0.144068f, 0.033555f, -0.047256f, -0.084220f, -0.040119f, 0.117829f, -0.107833f, -0.157880f, 0.106700f, -0.233541f, -0.015287f, -0.209494f, 0.105168f, -0.201473f, 0.178527f, -0.090922f, -0.178116f, 0.212335f, -0.244231f, 0.073846f, 0.130915f, 0.104886f, 0.070440f, -0.012865f, -0.151472f, -0.041631f, -0.049980f, -0.109865f, 0.205125f, 0.093407f, 0.214150f, 0.218359f, 0.214270f, -0.169025f, 0.048850f, -0.219128f, -0.092896f, 0.197975f, -0.149850f, 0.144967f, 0.064236f, 0.130758f, -0.101756f, -0.017504f, -0.223698f, -0.249714f, 0.007664f, 0.212993f, 0.006684f, -0.141746f, 0.174235f, 0.239278f, 0.185409f, -0.224787f, -0.040373f, -0.193350f, 0.022869f, -0.015988f, -0.220632f, -0.007017f, 0.078146f, 0.221677f, 0.008901f, 0.135225f, -0.102115f, -0.169661f, -0.015221f, -0.142057f, -0.174024f, 0.037568f, -0.136472f, 0.236984f, 0.100578f, 0.197235f, -0.122248f, 0.003113f, 0.203702f, 0.096888f, -0.123860f, 0.070631f, -0.145111f, 0.100481f, -0.009966f, 0.191205f, -0.024765f, 0.221239f, 0.181759f, 0.133014f, -0.212996f, -0.057329f, -0.060055f, -0.192083f, -0.025615f, -0.132472f, 0.150760f, -0.024802f, -0.245133f, 0.185324f, 0.050229f, 0.227444f, 0.049541f, -0.143139f, -0.061052f, 0.091128f, 0.122132f, 0.129968f, -0.060451f, -0.177909f, 0.014061f, 0.015684f, -0.027675f, -0.053031f, 0.014436f, 0.016867f, 0.167660f, -0.082796f, 0.223021f, 0.081461f, -0.068957f, -0.098228f, -0.052168f, 0.237742f, 0.022519f, -0.187852f, -0.050432f, 0.065545f, 0.139012f, -0.202505f, -0.035751f, -0.154553f, 0.032925f, -0.029526f, -0.105647f, -0.193460f, 0.123832f, -0.176695f, -0.087960f, 0.036684f, 0.199823f, 0.042269f, -0.101189f, -0.185788f, -0.190826f, -0.146378f, 0.030377f, -0.057089f, -0.213473f, 0.192218f, 0.133297f, 0.136362f, 0.197407f, -0.088467f, -0.013889f, -0.162195f, 0.121137f, 0.050558f, 0.142375f, -0.074092f, -0.248028f, -0.086347f, -0.058500f, 0.215389f, -0.091223f, -0.122721f, 0.025607f, 0.123245f, -0.095313f, 0.204533f, -0.025054f, -0.048558f, -0.082242f, 0.234506f, 0.216556f, 0.020874f, 0.199998f, -0.153687f, 0.049151f, -0.182490f, -0.215265f, 0.134982f, -0.047371f, -0.179689f, -0.192836f, 0.123254f, 0.079553f, -0.181598f, -0.005328f, 0.022851f, 0.153125f, -0.033712f, -0.004551f, -0.144064f, 0.020645f, 0.014377f, -0.197978f, 0.174873f, 0.057862f, 0.125972f, -0.066992f, 0.163952f, -0.096537f, -0.114963f, 0.036393f, 0.057909f, 0.016636f, 0.156067f, 0.215129f, 0.060297f, 0.130732f, 0.004861f, -0.188037f, 0.082003f, 0.093336f, -0.185607f, 0.038557f, 0.157992f, 0.018756f, -0.055244f, 0.132987f, 0.141522f, 0.089491f, 0.014272f, -0.111341f, -0.126496f, 0.157880f, -0.045548f, -0.082083f, 0.165150f, -0.051509f, 0.120009f, -0.162551f, -0.096656f, 0.136967f, -0.118992f, -0.143609f, -0.101316f, 0.064654f, -0.106178f, -0.177067f, 0.067370f, 0.066297f, 0.116300f, -0.134914f, 0.074374f, -0.196652f, -0.169744f, 0.226690f, 0.020306f, -0.071218f, 0.153519f, 0.107333f, -0.186937f, 0.072311f, 0.189772f, 0.001467f, 0.056443f, 0.135206f, 0.034037f, 0.146657f, 0.163459f, 0.147473f, -0.011262f, 0.049350f, -0.148903f, 0.211079f, 0.166918f, 0.219069f, 0.192756f, -0.150626f, 0.069227f, -0.096932f, -0.198798f, -0.124339f, -0.018443f, 0.062853f, 0.036470f, -0.086397f, 0.062231f, 0.009283f, 0.029933f, -0.198781f, -0.066674f, 0.112729f, -0.095980f, 0.150628f, -0.072035f, -0.031560f, -0.030134f, 0.051431f, 0.160448f, -0.032896f, -0.202851f, 0.100820f, -0.010319f, -0.145283f, 0.111871f, 0.095401f, 0.201250f, 0.157253f, 0.175327f, 0.162316f, -0.168471f, -0.069826f, -0.049969f, 0.135619f, -0.002078f, 0.167975f, 0.065080f, 0.157824f, 0.180875f, 0.033295f, 0.158051f, -0.190161f, 0.125924f, 0.034654f, -0.138061f, -0.073810f, 0.107150f, -0.096550f, 0.175752f, 0.089080f, -0.080679f, 0.011941f, 0.106435f, 0.065368f, -0.213129f, 0.096556f, 0.140229f, -0.088201f, -0.136384f, 0.167188f, -0.142916f, -0.031885f, 0.074239f, -0.058444f, 0.229321f, 0.056796f, -0.199973f, 0.074346f, 0.166135f, 0.232780f, 0.079337f, -0.040105f, 0.147980f, -0.017864f, 0.140890f, -0.045194f, -0.057872f, -0.152379f, 0.000229f, 0.209485f, 0.203721f, 0.209860f, 0.031727f, -0.164365f, -0.109100f, 0.211871f, -0.153731f, 0.073516f, -0.141992f, -0.044602f, 0.161017f, 0.064683f, -0.085439f, -0.127595f, -0.054831f, 0.207975f, 0.004413f, 0.005507f, 0.131382f, 0.110453f, 0.028714f, -0.000776f, 0.114330f, 0.150445f, 0.131900f, -0.094939f, -0.134262f, -0.118778f, -0.033108f, -0.022720f, 0.094335f, -0.044562f, -0.008928f, -0.035163f, 0.171030f, 0.122189f, 0.065990f, 0.054924f, -0.063632f, -0.199890f, -0.093842f, 0.007008f, -0.032313f, 0.006045f, 0.108034f, 0.202550f, 0.042634f, -0.024136f, -0.006151f, 0.100944f, 0.046055f, -0.170252f, 0.121224f, 0.178224f, -0.036058f, 0.176884f, 0.016519f, -0.033113f, -0.180737f, 0.005514f, -0.170659f, -0.048833f, 0.037591f, -0.154233f, -0.000420f, 0.002964f, 0.226227f, 0.047523f, -0.147468f, -0.165274f, -0.117964f, -0.160705f, 0.103506f, -0.090478f, 0.144069f, 0.012871f, -0.190199f, -0.195420f, -0.113258f, 0.197758f, 0.007215f, 0.224961f, 0.133119f, -0.010270f, 0.077708f, 0.086661f, -0.106168f, -0.002762f, 0.119192f, 0.057907f, -0.190873f, -0.175538f, 0.194484f, 0.158103f, -0.254954f, -0.077655f, 0.060006f, 0.036321f, 0.001273f, -0.150889f, 0.131979f, 0.000136f, 0.183771f, 0.193080f, 0.034324f, -0.081913f, -0.155718f, -0.070496f, -0.161761f, 0.038593f, -0.131723f, 0.113031f, 0.050371f, -0.061280f, -0.235133f, -0.017002f, -0.052503f, 0.119520f, -0.131502f, -0.082009f, 0.151716f, -0.063954f, 0.077648f, 0.028331f, -0.014651f, -0.022537f, -0.125622f, -0.153244f, -0.040183f, 0.176030f, 0.036688f, 0.179700f, -0.057935f, -0.017879f, -0.103846f, -0.005346f, -0.232675f, 0.178075f, 0.180978f, 0.055629f, -0.069537f, 0.033163f, 0.028938f, -0.094081f, -0.006624f, -0.213974f, -0.194550f, 0.143754f, -0.031487f, -0.000197f, -0.156252f, 0.130766f, -0.038344f, 0.135996f, -0.077582f, -0.032596f, -0.177688f, -0.073923f, 0.005247f, 0.127168f, 0.072300f, 0.168052f, -0.040840f, -0.184495f, 0.165077f, 0.203262f, -0.080538f, 0.121437f, -0.120611f, 0.046333f, 0.101717f, -0.189637f, -0.167707f, 0.085697f, -0.102026f, -0.002036f, -0.226969f, -0.068243f, -0.190604f, 0.024701f, 0.119342f, -0.185294f, 0.105207f, -0.037182f, 0.008648f, 0.128388f, 0.034117f, -0.048908f, -0.067552f, -0.040182f, 0.142813f, -0.070519f, -0.111464f, -0.034149f, -0.242911f, -0.184463f, 0.010876f, 0.148499f, -0.170504f, 0.021672f, 0.062359f, -0.109831f, -0.032591f, -0.092729f, -0.109839f, -0.214488f, -0.144062f, 0.105167f, -0.137077f, 0.116504f, -0.093558f, 0.016803f, -0.162851f, 0.188170f, -0.194446f, -0.167777f, -0.028409f, -0.029255f, -0.212645f, -0.048716f, -0.119257f, 0.043923f, 0.119932f, 0.181810f, 0.050393f, -0.097976f, -0.161320f, 0.039915f, 0.132323f, 0.152274f, -0.100627f, 0.033967f, -0.073117f, 0.149382f, 0.078211f, 0.226077f, -0.225916f, 0.140693f, 0.164365f, -0.022272f, -0.167150f, -0.172849f, 0.119720f, -0.047749f, -0.091978f, 0.160013f, 0.091088f, -0.192452f, -0.047854f, -0.014462f, 0.032430f, -0.068144f, 0.195617f, 0.214058f, 0.153893f, -0.024270f, -0.122509f, 0.124526f, -0.214963f, 0.006712f, 0.092010f, 0.049427f, 0.036417f, 0.084987f, 0.224253f, -0.106931f, -0.201777f, -0.125324f, 0.186311f, 0.044909f, -0.107980f, -0.092660f, -0.006270f, -0.032964f, 0.171119f, 0.163544f, 0.102875f, 0.176782f, 0.109258f, 0.089738f, 0.044917f, 0.043697f, -0.120337f, -0.102917f, 0.185206f, 0.185116f, 0.007469f, -0.137938f, 0.051835f, 0.044206f, -0.082178f, -0.176571f, 0.150958f, -0.098928f, -0.133185f, -0.134326f, 0.087569f, 0.195786f, -0.045661f, -0.082888f, 0.109642f, -0.131498f, -0.142476f, -0.156656f, -0.074328f, -0.057657f, -0.081071f, -0.083690f, -0.195582f, -0.012721f, -0.161695f, -0.187364f, 0.239916f, -0.201057f, 0.116326f, -0.040140f, 0.132106f, -0.078463f, -0.220551f, 0.007697f, -0.090830f, 0.114732f, 0.099651f, 0.173979f, -0.168554f, 0.002734f, 0.170802f, -0.010460f, -0.014573f, 0.031747f, 0.101456f, -0.008085f, -0.152963f, 0.197293f, -0.211903f, -0.149876f, -0.062400f, -0.139487f, 0.130869f, -0.190679f, -0.226829f, 0.033313f, 0.073643f, 0.035552f, 0.011766f, 0.134682f, 0.148210f, 0.097995f, 0.131401f, -0.101044f, 0.147386f, -0.009495f, 0.095535f, 0.184988f, 0.177956f, 0.204723f, -0.133315f, -0.137154f, -0.230435f, -0.126245f, -0.207307f, -0.167972f, -0.161404f, -0.015541f, -0.222649f, -0.096802f, -0.064686f, 0.002677f, -0.133192f, 0.158323f, 0.064167f, 0.116934f };
static const float anomaly_model_layer_1_biases[10] = { 0.021973f, 0.035913f, -0.028115f, 0.010498f, -0.024054f, -0.033710f, -0.002711f, -0.005270f, -0.011982f, -0.008543f };
static const float anomaly_model_layer_1_weights[200] = { -0.082037f, -0.004332f, 0.025673f, 0.197182f, -0.154785f, -0.172997f, 0.082031f, -0.152736f, 0.198660f, -0.106950f, 0.063586f, -0.130014f, -0.207922f, -0.252118f, 0.410249f, -0.036582f, 0.440522f, 0.249505f, -0.093169f, 0.128419f, 0.298388f, 0.322910f, 0.041638f, -0.338568f, -0.376830f, -0.390265f, -0.217311f, -0.035375f, -0.095265f, -0.143408f, -0.218711f, 0.137533f, 0.122872f, 0.004424f, -0.405718f, 0.055931f, -0.355297f, -0.454137f, 0.346260f, -0.416290f, 0.091809f, -0.047571f, 0.269066f, 0.128583f, -0.146566f, -0.458152f, -0.041747f, 0.323163f, -0.072036f, 0.297323f, -0.322064f, 0.337064f, 0.188011f, -0.314326f, 0.243841f, 0.350948f, -0.196629f, -0.280487f, -0.017350f, -0.104017f, 0.350382f, 0.419891f, 0.281504f, -0.387315f, -0.405416f, -0.172558f, -0.385155f, -0.107712f, -0.200429f, 0.297467f, -0.158958f, 0.058909f, 0.152673f, -0.094982f, -0.264441f, -0.087784f, 0.086850f, 0.341838f, 0.383677f, -0.153831f, -0.052789f, 0.122097f, -0.200346f, 0.158811f, 0.347383f, 0.162270f, -0.308919f, 0.290230f, 0.326898f, 0.109180f, -0.094459f, 0.258154f, -0.097318f, 0.080518f, -0.129677f, 0.311174f, 0.020747f, -0.375639f, -0.236426f, -0.022498f, 0.307060f, -0.394639f, 0.366806f, -0.111010f, -0.144755f, -0.322492f, 0.400251f, -0.104772f, -0.070002f, -0.150493f, 0.070731f, -0.254266f, 0.372076f, -0.426840f, 0.378389f, -0.105021f, -0.441316f, 0.292904f, -0.381140f, -0.373675f, 0.390602f, -0.369757f, -0.072645f, -0.418657f, -0.012250f, 0.259786f, 0.325416f, -0.444971f, 0.269970f, -0.271227f, -0.276553f, 0.068041f, 0.196650f, 0.447083f, -0.357562f, -0.250624f, -0.177840f, 0.336706f, 0.117618f, -0.087953f, -0.389607f, -0.121607f, 0.026785f, 0.177723f, -0.056056f, 0.336718f, -0.124707f, -0.054780f, -0.022152f, 0.374841f, 0.073910f, 0.363869f, -0.277444f, -0.212210f, -0.169275f, 0.053534f, -0.203694f, 0.347409f, -0.443370f, -0.121274f, -0.016805f, -0.270315f, 0.111609f, -0.218522f, -0.212345f, 0.306190f, -0.310774f, 0.405995f, -0.269444f, 0.284478f, -0.213053f, 0.045184f, -0.020749f, 0.043696f, -0.192249f, 0.409625f, 0.126002f, -0.204829f, -0.469726f, -0.384679f, 0.371980f, 0.483482f, -0.477848f, 0.021995f, -0.379326f, 0.402286f, -0.377166f, 0.145953f, 0.052276f, -0.112486f, -0.101555f, -0.302361f, -0.105157f, 0.392488f, 0.438670f, 0.062021f, 0.270488f, 0.063228f, -0.055282f, -0.409865f };
static const float anomaly_model_layer_2_biases[6] = { -0.027913f, 0.017443f, -0.041226f, 0.031088f, 0.020468f, 0.038730f };
static const float anomaly_model_layer_2_weights[60] = { -0.316305f, 0.463342f, 0.063316f, 0.470561f, -0.586909f, -0.353893f, -0.082351f, 0.595389f, -0.393967f, -0.257493f, 0.009533f, 0.537558f, 0.493588f, -0.135187f, 0.539406f, -0.403650f, -0.174306f, -0.589887f, 0.267546f, -0.484545f, -0.025247f, 0.467259f, -0.551545f, 0.551385f, 0.208211f, 0.374869f, 0.002226f, 0.026293f, -0.180791f, -0.314550f, 0.468150f, -0.536240f, 0.400332f, -0.010660f, 0.566271f, -0.483583f, 0.369066f, -0.063652f, 0.378861f, 0.213635f, -0.298148f, -0.612791f, 0.375509f, 0.305647f, 0.409854f, -0.584355f, -0.398483f, 0.234401f, 0.134597f, 0.184182f, 0.413982f, 0.211293f, -0.085346f, 0.354805f, 0.359892f, 0.247508f, 0.093091f, 0.163179f, -0.216655f, 0.185910f };
static float anomaly_model_buf1[102];
static float anomaly_model_buf2[102];
static const EmlNetLayer anomaly_model_layers[3] = { 
{ 20, 102, anomaly_model_layer_0_weights, anomaly_model_layer_0_biases, EmlNetActivationRelu }, 
{ 10, 20, anomaly_model_layer_1_weights, anomaly_model_layer_1_biases, EmlNetActivationRelu }, 
{ 6, 10, anomaly_model_layer_2_weights, anomaly_model_layer_2_biases, EmlNetActivationSoftmax } };
static EmlNet anomaly_model = { 3, anomaly_model_layers, anomaly_model_buf1, anomaly_model_buf2, 102 };

    int32_t
    anomaly_model_predict(const float *features, int32_t n_features)
    {
        return eml_net_predict(&anomaly_model, features, n_features);
    }
    

    int32_t
    anomaly_model_regress(const float *features, int32_t n_features, float *out, int32_t out_length)
    {
        return eml_net_regress(&anomaly_model, features, n_features, out, out_length);
    }
    

    float
    anomaly_model_regress1(const float *features, int32_t n_features)
    {
        return eml_net_regress1(&anomaly_model, features, n_features);
    }
    